~o
<STREAMINFO> 1 39
<VECSIZE> 39<NULLD><MFCC_E_D_A_Z><DIAGC>
~s "silst"
<NUMMIXES> 30
<MIXTURE> 1 3.634634e-02
<MEAN> 39
 -2.489834e+00 5.116339e-02 3.241043e+00 4.115482e+00 4.528004e+00 5.322621e+00 4.681612e+00 5.387935e+00 3.087186e+00 2.467905e+00 2.772467e+00 1.062990e+00 -3.516860e-02 -3.472023e-02 3.104752e-01 3.531250e-01 3.653894e-01 2.366779e-01 2.668225e-01 1.099537e-02 3.238769e-02 1.443859e-03 -9.762336e-02 -2.150331e-02 -8.749549e-02 -1.052697e-02 3.481698e-01 2.139910e-02 -4.753473e-02 -3.514498e-02 -9.064252e-02 -1.386727e-01 -1.775216e-01 -1.804150e-01 -9.678577e-02 1.306064e-01 1.038270e-01 1.234910e-01 3.836195e-02
<VARIANCE> 39
 1.001336e+01 4.086356e+01 1.174091e+01 2.508866e+01 2.351753e+01 2.114634e+01 1.519744e+01 2.342379e+01 2.616162e+01 1.467775e+01 1.795444e+01 1.069245e+01 1.168304e-02 2.143605e-01 4.838641e-01 6.372983e-01 9.340770e-01 8.860852e-01 1.281884e+00 1.146555e+00 1.860519e+00 1.202767e+00 1.356715e+00 1.564617e+00 1.117224e+00 3.534685e-04 1.578989e-01 4.268476e-01 2.209746e-01 2.750169e-01 4.498594e-01 3.791525e-01 3.171248e-01 4.104902e-01 4.895218e-01 3.330753e-01 2.792386e-01 1.641482e-01 4.547222e-04
<GCONST> 7.152259e+01
<MIXTURE> 2 3.573469e-02
<MEAN> 39
 -3.305306e+00 2.095473e+00 1.109923e+00 -3.964261e+00 -2.058676e+00 -1.200970e+00 -2.123769e+00 2.395896e+00 5.627334e+00 2.381241e+00 3.967834e+00 7.996144e-01 4.794741e-02 -1.043693e+00 -1.479637e+00 -3.012277e-01 3.523044e-01 -1.650208e-02 1.441024e-01 5.555272e-01 -5.534372e-02 -3.232908e-01 1.577618e-01 -7.131214e-02 8.396365e-02 -2.498196e-02 5.621287e-01 1.588781e-02 1.210039e-01 6.446733e-01 5.662565e-01 4.206728e-01 3.933772e-01 -1.545805e-01 -5.956253e-01 -4.527117e-01 -4.616062e-01 -1.299116e-01 6.118434e-02
<VARIANCE> 39
 1.309686e+01 3.314535e+01 2.651573e+01 2.103007e+01 2.240327e+01 2.048172e+01 2.133412e+01 3.110435e+01 3.447606e+01 3.373287e+01 3.214268e+01 1.923375e+01 1.535280e-02 1.569936e+00 3.242867e+00 1.987557e+00 3.106975e+00 2.523050e+00 2.850420e+00 2.946326e+00 3.889539e+00 4.309950e+00 3.297126e+00 2.885762e+00 2.041236e+00 7.163296e-03 2.738761e-01 4.814738e-01 3.404334e-01 4.255799e-01 3.621516e-01 4.457181e-01 4.501846e-01 6.338329e-01 6.677057e-01 4.929802e-01 5.734887e-01 4.720305e-01 7.480960e-04
<GCONST> 9.670653e+01
<MIXTURE> 3 6.453826e-02
<MEAN> 39
 -1.002569e+00 2.002407e-01 1.673398e+00 1.591666e+00 3.626703e+00 3.207189e+00 2.193368e+00 2.808767e+00 3.550545e+00 6.756480e-01 1.123363e+00 2.665792e-01 2.050695e-01 -2.067935e+00 -2.360677e+00 -1.851744e+00 -1.149421e+00 -4.628923e-01 1.323830e-01 7.513229e-01 1.221055e+00 1.309808e+00 1.157525e+00 1.171889e+00 7.837452e-01 -1.416425e-01 3.588913e-01 2.416051e-01 1.634919e-01 -7.188299e-02 -2.204234e-01 -2.888675e-01 -2.354527e-01 -2.547652e-01 -1.344619e-01 3.736361e-03 -5.937232e-02 -5.519618e-02 2.425420e-02
<VARIANCE> 39
 1.221425e+01 5.515454e+01 1.590437e+01 2.992868e+01 3.219870e+01 2.957245e+01 3.543410e+01 3.567044e+01 3.291832e+01 3.390885e+01 3.032856e+01 2.381670e+01 1.827995e-02 5.081627e-01 8.736440e-01 1.001864e+00 1.414978e+00 1.842518e+00 2.077495e+00 2.217747e+00 2.705848e+00 3.079346e+00 2.618719e+00 2.273227e+00 2.305882e+00 7.785163e-04 1.236030e-01 2.997129e-01 2.256275e-01 2.812703e-01 3.493030e-01 3.606945e-01 4.201345e-01 4.990420e-01 4.425542e-01 4.766027e-01 4.995281e-01 3.829909e-01 2.598124e-04
<GCONST> 8.605905e+01
<MIXTURE> 4 1.817598e-02
<MEAN> 39
 -4.906868e-01 2.017939e+00 6.775222e+00 4.859270e+00 5.499396e+00 6.155971e+00 2.847225e+00 4.465077e+00 5.328904e+00 2.944149e+00 2.131113e+00 3.218424e+00 1.493896e-01 -5.490056e-01 1.596134e-02 8.694448e-02 5.140998e-01 2.091839e-01 3.915085e-01 -1.665009e-01 4.772277e-01 1.752377e-01 -1.175085e-01 2.192507e-01 -6.318701e-04 1.732892e-02 -3.897362e-01 -1.939200e-01 -3.785453e-01 -9.397906e-02 -1.807110e-01 -1.218572e-01 -1.505447e-02 3.220588e-02 -2.375992e-01 -2.025337e-02 2.526412e-02 -1.686960e-01 -2.797468e-03
<VARIANCE> 39
 1.813317e+01 2.081036e+01 2.061106e+01 2.238210e+01 2.871288e+01 3.606615e+01 3.351867e+01 4.128233e+01 2.937287e+01 2.067163e+01 1.921107e+01 1.506111e+01 3.203227e-02 2.067137e+00 2.212327e+00 2.231249e+00 1.948501e+00 2.968380e+00 3.088107e+00 3.055197e+00 2.857102e+00 3.703462e+00 2.197620e+00 1.697965e+00 1.957080e+00 2.613669e-03 2.445816e-01 2.915685e-01 3.197484e-01 3.329831e-01 4.323944e-01 6.343781e-01 5.566868e-01 5.536775e-01 6.882955e-01 3.741322e-01 3.305819e-01 3.565569e-01 4.392345e-04
<GCONST> 9.270139e+01
<MIXTURE> 5 3.434233e-02
<MEAN> 39
 1.251505e-01 1.792598e+00 4.884635e+00 3.998974e+00 3.011009e+00 4.879708e-01 -2.659556e+00 -1.614841e+00 -1.927146e+00 3.623165e-01 1.738264e+00 2.014800e+00 3.396825e-01 -2.246606e+00 -1.595543e+00 -2.399084e-01 6.412429e-01 1.383559e+00 2.222361e+00 2.234350e+00 2.288931e+00 1.649796e+00 1.182460e+00 3.583041e-01 -2.111691e-01 -1.259018e-01 1.676418e-01 -4.490480e-02 -3.285300e-01 -2.703739e-01 -9.873400e-02 9.254988e-02 3.796297e-01 4.712296e-01 4.374522e-01 1.678851e-01 -1.078591e-01 -2.411735e-01 1.178774e-02
<VARIANCE> 39
 1.830227e+01 5.095948e+01 2.685777e+01 4.268182e+01 2.442325e+01 3.043994e+01 3.585300e+01 3.295613e+01 3.206141e+01 4.097627e+01 3.399504e+01 3.351048e+01 2.221275e-02 1.155130e+00 1.652535e+00 2.361178e+00 2.257407e+00 2.491972e+00 2.191065e+00 3.437674e+00 3.367257e+00 3.887012e+00 3.674669e+00 4.078030e+00 3.523441e+00 2.264857e-03 1.940456e-01 2.604062e-01 3.585128e-01 4.390226e-01 4.339564e-01 4.724878e-01 6.120972e-01 6.627918e-01 6.069902e-01 6.541893e-01 5.288302e-01 4.482875e-01 4.080223e-04
<GCONST> 9.786921e+01
<MIXTURE> 6 4.440825e-02
<MEAN> 39
 1.171575e+00 -3.666933e+00 -4.264815e+00 -1.014267e+00 3.153051e+00 7.038181e-01 4.984814e+00 8.448526e+00 4.920650e+00 -7.950180e-01 -2.714210e+00 -1.271568e-01 2.722286e-01 -1.005156e+00 -3.037922e-01 5.322269e-01 4.219542e-01 7.590599e-02 4.480390e-01 -1.103970e-01 -1.121277e-01 1.910556e-01 5.460923e-01 3.193878e-01 1.894980e-02 -4.891759e-02 1.234348e-01 2.723610e-01 3.045645e-01 2.862433e-01 5.127054e-02 2.479604e-02 -4.423773e-01 -7.248325e-01 -4.076369e-01 2.255326e-01 2.972108e-01 1.420358e-01 2.168994e-02
<VARIANCE> 39
 1.694290e+01 3.075355e+01 3.141326e+01 4.107233e+01 4.959364e+01 3.692318e+01 4.190171e+01 3.668432e+01 4.289297e+01 4.227505e+01 3.434218e+01 2.976530e+01 3.041314e-02 1.518312e+00 1.457613e+00 2.083294e+00 2.274042e+00 2.761305e+00 2.690054e+00 2.880275e+00 2.931847e+00 2.489839e+00 2.837738e+00 2.229209e+00 1.801548e+00 4.955974e-03 3.037501e-01 3.177634e-01 3.692335e-01 4.024651e-01 5.936466e-01 6.037841e-01 6.510010e-01 4.357270e-01 6.320714e-01 5.100335e-01 5.337654e-01 4.534687e-01 1.039220e-03
<GCONST> 9.946236e+01
<MIXTURE> 7 1.817598e-02
<MEAN> 39
 -4.906868e-01 2.017939e+00 6.775222e+00 4.859270e+00 5.499396e+00 6.155971e+00 2.847225e+00 4.465077e+00 5.328904e+00 2.944149e+00 2.131113e+00 3.218424e+00 1.493896e-01 -5.490056e-01 1.596134e-02 8.694448e-02 5.140998e-01 2.091839e-01 3.915085e-01 -1.665009e-01 4.772277e-01 1.752377e-01 -1.175085e-01 2.192507e-01 -6.318701e-04 1.732892e-02 -3.897362e-01 -1.939200e-01 -3.785453e-01 -9.397906e-02 -1.807110e-01 -1.218572e-01 -1.505447e-02 3.220588e-02 -2.375992e-01 -2.025337e-02 2.526412e-02 -1.686960e-01 -2.797468e-03
<VARIANCE> 39
 1.813317e+01 2.081036e+01 2.061106e+01 2.238210e+01 2.871288e+01 3.606615e+01 3.351867e+01 4.128233e+01 2.937287e+01 2.067163e+01 1.921107e+01 1.506111e+01 3.203227e-02 2.067137e+00 2.212327e+00 2.231249e+00 1.948501e+00 2.968380e+00 3.088107e+00 3.055197e+00 2.857102e+00 3.703462e+00 2.197620e+00 1.697965e+00 1.957080e+00 2.613669e-03 2.445816e-01 2.915685e-01 3.197484e-01 3.329831e-01 4.323944e-01 6.343781e-01 5.566868e-01 5.536775e-01 6.882955e-01 3.741322e-01 3.305819e-01 3.565569e-01 4.392345e-04
<GCONST> 9.270139e+01
<MIXTURE> 8 1.669029e-02
<MEAN> 39
 1.234521e-01 -2.950704e+00 2.594018e+00 3.361940e+00 5.724101e+00 8.584899e+00 3.345501e+00 4.346987e+00 7.035577e+00 6.312087e+00 6.871558e+00 2.446009e+00 1.455425e-01 -1.469692e-01 1.625763e-01 5.353107e-02 1.064283e-01 -1.624341e-01 -4.212272e-01 5.711661e-02 3.163484e-01 -1.406418e-01 -3.178785e-01 -7.859205e-02 -2.687649e-01 -2.585240e-02 4.666675e-02 1.601359e-01 2.250412e-01 3.335467e-01 4.737192e-02 -2.731305e-01 -1.022640e-01 -2.556993e-01 -4.638367e-01 -5.251780e-01 -5.996482e-01 -3.333873e-01 1.045743e-02
<VARIANCE> 39
 1.886126e+01 3.102268e+01 1.455912e+01 2.243155e+01 1.111058e+01 3.190935e+01 2.247698e+01 3.216788e+01 1.953198e+01 1.340642e+01 2.262081e+01 1.902881e+01 2.346216e-02 4.748282e-01 6.558176e-01 1.317719e+00 1.023481e+00 1.330469e+00 2.137736e+00 1.818789e+00 2.005838e+00 2.613353e+00 2.687628e+00 3.158939e+00 2.448239e+00 6.797130e-04 1.077290e-01 1.288765e-01 1.167629e-01 1.805547e-01 2.609021e-01 3.289126e-01 3.851162e-01 3.928343e-01 2.239085e-01 3.697228e-01 3.586768e-01 2.914936e-01 1.566388e-04
<GCONST> 7.635355e+01
<MIXTURE> 9 3.434233e-02
<MEAN> 39
 1.251505e-01 1.792598e+00 4.884635e+00 3.998974e+00 3.011009e+00 4.879708e-01 -2.659556e+00 -1.614841e+00 -1.927146e+00 3.623165e-01 1.738264e+00 2.014800e+00 3.396825e-01 -2.246606e+00 -1.595543e+00 -2.399084e-01 6.412429e-01 1.383559e+00 2.222361e+00 2.234350e+00 2.288931e+00 1.649796e+00 1.182460e+00 3.583041e-01 -2.111691e-01 -1.259018e-01 1.676418e-01 -4.490480e-02 -3.285300e-01 -2.703739e-01 -9.873400e-02 9.254988e-02 3.796297e-01 4.712296e-01 4.374522e-01 1.678851e-01 -1.078591e-01 -2.411735e-01 1.178774e-02
<VARIANCE> 39
 1.830227e+01 5.095948e+01 2.685777e+01 4.268182e+01 2.442325e+01 3.043994e+01 3.585300e+01 3.295613e+01 3.206141e+01 4.097627e+01 3.399504e+01 3.351048e+01 2.221275e-02 1.155130e+00 1.652535e+00 2.361178e+00 2.257407e+00 2.491972e+00 2.191065e+00 3.437674e+00 3.367257e+00 3.887012e+00 3.674669e+00 4.078030e+00 3.523441e+00 2.264857e-03 1.940456e-01 2.604062e-01 3.585128e-01 4.390226e-01 4.339564e-01 4.724878e-01 6.120972e-01 6.627918e-01 6.069902e-01 6.541893e-01 5.288302e-01 4.482875e-01 4.080223e-04
<GCONST> 9.786921e+01
<MIXTURE> 10 2.016771e-02
<MEAN> 39
 -2.064064e+00 -5.110684e+00 -1.060856e+00 2.302472e+00 3.732583e+00 2.816372e+00 2.926486e+00 1.841577e+00 2.428622e+00 2.221308e+00 2.653568e+00 1.683482e+00 1.106987e-01 -9.542087e-01 -5.396919e-01 -3.497462e-01 -2.372276e-01 -7.517547e-02 2.394567e-02 9.167719e-02 1.810766e-01 2.601759e-01 1.796111e-01 2.959410e-01 -2.886530e-02 -7.910068e-02 5.417100e-01 6.225345e-01 4.557551e-01 2.013660e-01 1.458459e-02 -5.729827e-02 -1.349819e-01 -8.918578e-02 -1.284443e-01 -2.263226e-01 -3.341827e-01 -1.563899e-01 3.304956e-02
<VARIANCE> 39
 9.174275e+00 6.198225e+01 2.354603e+01 3.515274e+01 3.257955e+01 2.822837e+01 3.484085e+01 3.555901e+01 3.120935e+01 3.956480e+01 2.759682e+01 2.592031e+01 2.349520e-02 5.539439e-01 1.012748e+00 9.810501e-01 1.468965e+00 2.048115e+00 2.457541e+00 2.310115e+00 2.982190e+00 2.302129e+00 2.128391e+00 2.265894e+00 2.106084e+00 1.138811e-03 8.651229e-02 1.835610e-01 2.454431e-01 2.334942e-01 3.143124e-01 3.339135e-01 3.914928e-01 5.323399e-01 4.466164e-01 5.155147e-01 3.860168e-01 3.880588e-01 2.444624e-04
<GCONST> 8.582515e+01
<MIXTURE> 11 2.016771e-02
<MEAN> 39
 -2.064064e+00 -5.110684e+00 -1.060856e+00 2.302472e+00 3.732583e+00 2.816372e+00 2.926486e+00 1.841577e+00 2.428622e+00 2.221308e+00 2.653568e+00 1.683482e+00 1.106987e-01 -9.542087e-01 -5.396919e-01 -3.497462e-01 -2.372276e-01 -7.517547e-02 2.394567e-02 9.167719e-02 1.810766e-01 2.601759e-01 1.796111e-01 2.959410e-01 -2.886530e-02 -7.910068e-02 5.417100e-01 6.225345e-01 4.557551e-01 2.013660e-01 1.458459e-02 -5.729827e-02 -1.349819e-01 -8.918578e-02 -1.284443e-01 -2.263226e-01 -3.341827e-01 -1.563899e-01 3.304956e-02
<VARIANCE> 39
 9.174275e+00 6.198225e+01 2.354603e+01 3.515274e+01 3.257955e+01 2.822837e+01 3.484085e+01 3.555901e+01 3.120935e+01 3.956480e+01 2.759682e+01 2.592031e+01 2.349520e-02 5.539439e-01 1.012748e+00 9.810501e-01 1.468965e+00 2.048115e+00 2.457541e+00 2.310115e+00 2.982190e+00 2.302129e+00 2.128391e+00 2.265894e+00 2.106084e+00 1.138811e-03 8.651229e-02 1.835610e-01 2.454431e-01 2.334942e-01 3.143124e-01 3.339135e-01 3.914928e-01 5.323399e-01 4.466164e-01 5.155147e-01 3.860168e-01 3.880588e-01 2.444624e-04
<GCONST> 8.582515e+01
<MIXTURE> 12 1.862465e-02
<MEAN> 39
 -3.855165e+00 -7.217403e+00 7.291524e-01 4.796885e+00 4.006106e+00 3.715132e+00 4.665041e+00 1.043197e+00 -1.408556e+00 5.163113e-01 3.474256e+00 3.173386e+00 1.563228e-01 3.358290e-01 1.026355e+00 6.239973e-01 -1.181433e-01 -5.105173e-01 -2.983102e-01 -2.340844e-01 -3.147437e-01 3.273671e-02 -1.315539e-01 -4.870217e-01 -3.255515e-01 4.191710e-02 6.371102e-01 6.070041e-01 6.574352e-02 -2.343615e-01 -2.203844e-01 -1.335735e-01 -3.294648e-01 7.139522e-02 3.396593e-01 7.653872e-02 -3.583080e-01 -1.797136e-01 3.560640e-02
<VARIANCE> 39
 1.933742e+01 4.219001e+01 4.150709e+01 3.244745e+01 4.190243e+01 6.289869e+01 4.999329e+01 5.479216e+01 3.379391e+01 4.391992e+01 5.823079e+01 2.700763e+01 2.503879e-02 2.493301e+00 3.665628e+00 3.062320e+00 3.444779e+00 3.274688e+00 3.970301e+00 5.312239e+00 4.635343e+00 5.079140e+00 3.792353e+00 4.530357e+00 3.099804e+00 7.004044e-03 5.060762e-01 6.441666e-01 6.396115e-01 6.478968e-01 9.748865e-01 1.067941e+00 9.153106e-01 9.985691e-01 7.220098e-01 8.355613e-01 1.188132e+00 5.831820e-01 1.189599e-03
<GCONST> 1.136737e+02
<MIXTURE> 13 1.817598e-02
<MEAN> 39
 -4.906868e-01 2.017939e+00 6.775222e+00 4.859270e+00 5.499396e+00 6.155971e+00 2.847225e+00 4.465077e+00 5.328904e+00 2.944149e+00 2.131113e+00 3.218424e+00 1.493896e-01 -5.490056e-01 1.596134e-02 8.694448e-02 5.140998e-01 2.091839e-01 3.915085e-01 -1.665009e-01 4.772277e-01 1.752377e-01 -1.175085e-01 2.192507e-01 -6.318701e-04 1.732892e-02 -3.897362e-01 -1.939200e-01 -3.785453e-01 -9.397906e-02 -1.807110e-01 -1.218572e-01 -1.505447e-02 3.220588e-02 -2.375992e-01 -2.025337e-02 2.526412e-02 -1.686960e-01 -2.797468e-03
<VARIANCE> 39
 1.813317e+01 2.081036e+01 2.061106e+01 2.238210e+01 2.871288e+01 3.606615e+01 3.351867e+01 4.128233e+01 2.937287e+01 2.067163e+01 1.921107e+01 1.506111e+01 3.203227e-02 2.067137e+00 2.212327e+00 2.231249e+00 1.948501e+00 2.968380e+00 3.088107e+00 3.055197e+00 2.857102e+00 3.703462e+00 2.197620e+00 1.697965e+00 1.957080e+00 2.613669e-03 2.445816e-01 2.915685e-01 3.197484e-01 3.329831e-01 4.323944e-01 6.343781e-01 5.566868e-01 5.536775e-01 6.882955e-01 3.741322e-01 3.305819e-01 3.565569e-01 4.392345e-04
<GCONST> 9.270139e+01
<MIXTURE> 14 1.516421e-02
<MEAN> 39
 -5.752689e+00 -4.890746e-01 7.848868e+00 5.349139e+00 6.091709e+00 9.071124e+00 4.266521e+00 5.650232e+00 3.677542e+00 3.779329e+00 3.183802e+00 1.424890e+00 -1.259867e-01 -2.776627e-02 2.802720e-01 -1.366501e-01 -1.189086e-01 -2.877412e-01 -2.065814e-01 -4.276124e-02 5.737931e-02 7.352571e-02 -1.085053e-01 1.954449e-01 -1.372328e-02 -2.060866e-03 5.675623e-02 -6.583037e-02 -2.933868e-02 8.277801e-02 2.570940e-02 -1.308380e-02 2.725956e-02 4.786664e-04 3.206813e-02 1.598573e-03 -2.530073e-02 -1.916185e-02 2.998801e-03
<VARIANCE> 39
 6.048372e+00 3.371975e+01 1.624409e+01 1.474245e+01 3.687798e+01 1.949991e+01 1.634280e+01 2.662010e+01 2.057705e+01 2.202133e+01 1.750082e+01 1.783169e+01 1.057945e-03 4.224024e-01 6.586783e-01 5.663468e-01 9.126193e-01 1.238113e+00 1.572802e+00 2.116133e+00 1.663145e+00 1.618127e+00 1.821846e+00 1.402589e+00 1.364968e+00 3.754082e-05 7.058074e-02 1.218746e-01 9.423906e-02 1.416448e-01 2.409978e-01 2.945415e-01 4.199201e-01 3.372388e-01 4.043061e-01 4.293201e-01 2.793048e-01 3.381466e-01 2.436974e-05
<GCONST> 6.325584e+01
<MIXTURE> 15 8.067830e-02
<MEAN> 39
 -1.697441e+00 2.303674e+00 1.711578e+00 1.961405e+00 1.401858e+00 3.479997e+00 9.260740e-01 4.183381e+00 3.622016e+00 4.607376e-01 1.995767e+00 6.074288e-01 -9.326346e-02 7.156011e-02 9.153536e-02 4.761621e-02 7.762965e-03 -2.829504e-02 7.964563e-02 7.052058e-02 7.665748e-02 -7.473112e-02 2.729829e-02 8.970136e-03 -3.861608e-02 -3.623500e-04 -2.452023e-02 -3.350409e-02 2.466441e-02 2.406982e-02 2.061725e-02 1.579720e-02 3.146206e-02 -9.131732e-03 -2.071701e-02 5.164692e-02 1.160036e-02 9.401892e-03 6.567232e-04
<VARIANCE> 39
 4.029198e+00 2.434205e+01 9.689682e+00 1.157535e+01 9.825181e+00 1.902761e+01 1.642699e+01 1.926590e+01 1.199741e+01 1.626929e+01 1.724596e+01 1.498549e+01 3.600072e-03 1.251616e-01 4.597873e-01 4.598151e-01 6.164412e-01 8.874840e-01 9.524575e-01 9.965369e-01 9.852642e-01 9.790931e-01 1.154830e+00 9.886439e-01 1.027081e+00 3.754082e-05 2.569251e-02 8.036299e-02 8.317192e-02 1.178318e-01 1.754883e-01 2.136916e-01 2.004995e-01 2.038265e-01 2.075718e-01 2.036391e-01 2.181818e-01 2.019611e-01 4.395653e-06
<GCONST> 4.690904e+01
<MIXTURE> 16 6.388782e-02
<MEAN> 39
 2.110247e+00 -1.124211e-01 4.885852e+00 7.114309e+00 7.328846e+00 6.382238e+00 3.057385e+00 7.142448e-01 1.724076e+00 -6.018219e-01 -9.971573e-01 9.239260e-02 4.434412e-01 -1.863354e+00 -1.719779e+00 -1.086431e+00 -5.271208e-01 -1.088693e-01 2.659743e-01 5.258937e-01 6.813619e-01 6.773041e-01 6.224659e-01 9.872434e-01 5.339625e-01 -1.149387e-01 -9.912270e-02 -2.772582e-01 -5.004629e-01 -6.567557e-01 -5.949528e-01 -6.209188e-01 -2.865710e-01 5.391852e-03 1.321887e-01 2.019286e-01 1.581386e-01 -2.177154e-02 -3.353143e-03
<VARIANCE> 39
 1.075937e+01 5.288348e+01 5.111833e+01 3.027487e+01 3.355570e+01 4.429391e+01 3.794205e+01 4.355639e+01 5.056098e+01 3.228104e+01 3.742812e+01 2.860601e+01 1.464216e-02 1.124081e+00 1.825709e+00 2.303961e+00 1.895759e+00 1.970875e+00 2.879740e+00 2.501461e+00 2.212784e+00 2.529526e+00 2.941176e+00 2.544571e+00 2.321439e+00 1.973049e-03 1.429805e-01 2.301106e-01 3.956338e-01 3.388209e-01 3.545650e-01 3.972670e-01 4.353980e-01 5.261417e-01 6.441576e-01 4.348901e-01 5.835581e-01 4.660347e-01 2.876647e-04
<GCONST> 9.383907e+01
<MIXTURE> 17 7.973981e-02
<MEAN> 39
 6.431872e+00 6.452298e+00 6.609080e+00 4.705405e+00 2.612454e+00 -7.731242e-01 -3.039975e+00 -2.094741e+00 -1.944236e+00 -2.102488e+00 -1.245267e+00 -8.433537e-01 5.660599e-01 -2.018859e+00 -9.850768e-01 4.838464e-01 9.703846e-01 1.155150e+00 1.474226e+00 9.176107e-01 5.940797e-01 6.698060e-02 2.044325e-02 3.012535e-01 3.916779e-01 -1.181866e-01 -6.155151e-01 -9.410308e-01 -1.040856e+00 -7.954457e-01 -2.142249e-01 1.048014e-01 6.210333e-01 7.447280e-01 7.437006e-01 4.700474e-01 1.824931e-01 4.444472e-02 -1.642487e-02
<VARIANCE> 39
 1.223615e+01 3.470196e+01 2.207427e+01 3.573139e+01 3.613155e+01 3.178454e+01 3.510571e+01 3.928589e+01 4.161928e+01 4.149324e+01 2.887305e+01 3.124014e+01 1.296436e-02 1.072143e+00 1.557770e+00 3.683161e+00 2.795122e+00 2.146568e+00 2.568799e+00 2.997247e+00 4.179573e+00 4.373158e+00 4.036632e+00 3.757602e+00 2.464830e+00 1.386391e-03 1.646501e-01 2.014030e-01 3.928117e-01 3.477720e-01 3.458505e-01 5.336870e-01 5.615349e-01 6.256886e-01 6.679531e-01 6.366703e-01 4.347126e-01 4.557856e-01 2.256226e-04
<GCONST> 9.517971e+01
<MIXTURE> 18 2.016771e-02
<MEAN> 39
 -2.064064e+00 -5.110684e+00 -1.060856e+00 2.302472e+00 3.732583e+00 2.816372e+00 2.926486e+00 1.841577e+00 2.428622e+00 2.221308e+00 2.653568e+00 1.683482e+00 1.106987e-01 -9.542087e-01 -5.396919e-01 -3.497462e-01 -2.372276e-01 -7.517547e-02 2.394567e-02 9.167719e-02 1.810766e-01 2.601759e-01 1.796111e-01 2.959410e-01 -2.886530e-02 -7.910068e-02 5.417100e-01 6.225345e-01 4.557551e-01 2.013660e-01 1.458459e-02 -5.729827e-02 -1.349819e-01 -8.918578e-02 -1.284443e-01 -2.263226e-01 -3.341827e-01 -1.563899e-01 3.304956e-02
<VARIANCE> 39
 9.174275e+00 6.198225e+01 2.354603e+01 3.515274e+01 3.257955e+01 2.822837e+01 3.484085e+01 3.555901e+01 3.120935e+01 3.956480e+01 2.759682e+01 2.592031e+01 2.349520e-02 5.539439e-01 1.012748e+00 9.810501e-01 1.468965e+00 2.048115e+00 2.457541e+00 2.310115e+00 2.982190e+00 2.302129e+00 2.128391e+00 2.265894e+00 2.106084e+00 1.138811e-03 8.651229e-02 1.835610e-01 2.454431e-01 2.334942e-01 3.143124e-01 3.339135e-01 3.914928e-01 5.323399e-01 4.466164e-01 5.155147e-01 3.860168e-01 3.880588e-01 2.444624e-04
<GCONST> 8.582515e+01
<MIXTURE> 19 2.016771e-02
<MEAN> 39
 -2.064064e+00 -5.110684e+00 -1.060856e+00 2.302472e+00 3.732583e+00 2.816372e+00 2.926486e+00 1.841577e+00 2.428622e+00 2.221308e+00 2.653568e+00 1.683482e+00 1.106987e-01 -9.542087e-01 -5.396919e-01 -3.497462e-01 -2.372276e-01 -7.517547e-02 2.394567e-02 9.167719e-02 1.810766e-01 2.601759e-01 1.796111e-01 2.959410e-01 -2.886530e-02 -7.910068e-02 5.417100e-01 6.225345e-01 4.557551e-01 2.013660e-01 1.458459e-02 -5.729827e-02 -1.349819e-01 -8.918578e-02 -1.284443e-01 -2.263226e-01 -3.341827e-01 -1.563899e-01 3.304956e-02
<VARIANCE> 39
 9.174275e+00 6.198225e+01 2.354603e+01 3.515274e+01 3.257955e+01 2.822837e+01 3.484085e+01 3.555901e+01 3.120935e+01 3.956480e+01 2.759682e+01 2.592031e+01 2.349520e-02 5.539439e-01 1.012748e+00 9.810501e-01 1.468965e+00 2.048115e+00 2.457541e+00 2.310115e+00 2.982190e+00 2.302129e+00 2.128391e+00 2.265894e+00 2.106084e+00 1.138811e-03 8.651229e-02 1.835610e-01 2.454431e-01 2.334942e-01 3.143124e-01 3.339135e-01 3.914928e-01 5.323399e-01 4.466164e-01 5.155147e-01 3.860168e-01 3.880588e-01 2.444624e-04
<GCONST> 8.582515e+01
<MIXTURE> 20 1.862465e-02
<MEAN> 39
 -3.855165e+00 -7.217403e+00 7.291524e-01 4.796885e+00 4.006106e+00 3.715132e+00 4.665041e+00 1.043197e+00 -1.408556e+00 5.163113e-01 3.474256e+00 3.173386e+00 1.563228e-01 3.358290e-01 1.026355e+00 6.239973e-01 -1.181433e-01 -5.105173e-01 -2.983102e-01 -2.340844e-01 -3.147437e-01 3.273671e-02 -1.315539e-01 -4.870217e-01 -3.255515e-01 4.191710e-02 6.371102e-01 6.070041e-01 6.574352e-02 -2.343615e-01 -2.203844e-01 -1.335735e-01 -3.294648e-01 7.139522e-02 3.396593e-01 7.653872e-02 -3.583080e-01 -1.797136e-01 3.560640e-02
<VARIANCE> 39
 1.933742e+01 4.219001e+01 4.150709e+01 3.244745e+01 4.190243e+01 6.289869e+01 4.999329e+01 5.479216e+01 3.379391e+01 4.391992e+01 5.823079e+01 2.700763e+01 2.503879e-02 2.493301e+00 3.665628e+00 3.062320e+00 3.444779e+00 3.274688e+00 3.970301e+00 5.312239e+00 4.635343e+00 5.079140e+00 3.792353e+00 4.530357e+00 3.099804e+00 7.004044e-03 5.060762e-01 6.441666e-01 6.396115e-01 6.478968e-01 9.748865e-01 1.067941e+00 9.153106e-01 9.985691e-01 7.220098e-01 8.355613e-01 1.188132e+00 5.831820e-01 1.189599e-03
<GCONST> 1.136737e+02
<MIXTURE> 21 6.312356e-02
<MEAN> 39
 -4.073307e+00 -3.674240e+00 5.424715e+00 5.850803e+00 7.446201e+00 8.587400e+00 4.789309e+00 5.207521e+00 6.398114e+00 5.809491e+00 4.239877e+00 1.747508e+00 8.528233e-02 -1.154721e+00 -6.541585e-01 1.533031e-01 8.026474e-01 9.965305e-01 8.636493e-01 1.028541e+00 1.028454e+00 7.034829e-01 5.268016e-01 -6.656957e-03 -2.831323e-01 -6.847266e-02 6.703456e-01 4.478207e-01 -1.669482e-01 -3.017786e-01 -6.276757e-01 -7.175237e-01 -4.847637e-01 -5.812465e-01 -5.950201e-01 -5.689689e-01 -2.494780e-01 -5.956002e-02 3.691802e-02
<VARIANCE> 39
 1.927216e+01 3.899419e+01 3.435135e+01 3.309943e+01 2.952903e+01 3.413506e+01 4.221518e+01 3.533819e+01 3.493859e+01 2.190764e+01 3.268544e+01 2.927906e+01 2.384163e-02 1.539630e+00 2.226865e+00 2.244522e+00 2.029085e+00 3.106705e+00 3.103696e+00 4.447091e+00 4.519843e+00 3.686697e+00 3.345423e+00 3.144810e+00 2.583889e+00 3.002987e-03 2.554803e-01 4.039631e-01 4.664886e-01 4.347891e-01 4.746616e-01 3.629166e-01 7.547174e-01 5.680794e-01 5.643116e-01 5.712851e-01 5.514718e-01 5.815097e-01 5.578237e-04
<GCONST> 9.990826e+01
<MIXTURE> 22 1.862465e-02
<MEAN> 39
 -3.855165e+00 -7.217403e+00 7.291524e-01 4.796885e+00 4.006106e+00 3.715132e+00 4.665041e+00 1.043197e+00 -1.408556e+00 5.163113e-01 3.474256e+00 3.173386e+00 1.563228e-01 3.358290e-01 1.026355e+00 6.239973e-01 -1.181433e-01 -5.105173e-01 -2.983102e-01 -2.340844e-01 -3.147437e-01 3.273671e-02 -1.315539e-01 -4.870217e-01 -3.255515e-01 4.191710e-02 6.371102e-01 6.070041e-01 6.574352e-02 -2.343615e-01 -2.203844e-01 -1.335735e-01 -3.294648e-01 7.139522e-02 3.396593e-01 7.653872e-02 -3.583080e-01 -1.797136e-01 3.560640e-02
<VARIANCE> 39
 1.933742e+01 4.219001e+01 4.150709e+01 3.244745e+01 4.190243e+01 6.289869e+01 4.999329e+01 5.479216e+01 3.379391e+01 4.391992e+01 5.823079e+01 2.700763e+01 2.503879e-02 2.493301e+00 3.665628e+00 3.062320e+00 3.444779e+00 3.274688e+00 3.970301e+00 5.312239e+00 4.635343e+00 5.079140e+00 3.792353e+00 4.530357e+00 3.099804e+00 7.004044e-03 5.060762e-01 6.441666e-01 6.396115e-01 6.478968e-01 9.748865e-01 1.067941e+00 9.153106e-01 9.985691e-01 7.220098e-01 8.355613e-01 1.188132e+00 5.831820e-01 1.189599e-03
<GCONST> 1.136737e+02
<MIXTURE> 23 4.266212e-02
<MEAN> 39
 1.409096e+00 2.078149e+00 1.460609e+00 -1.928888e+00 -3.676819e+00 -4.046153e+00 -3.090804e+00 -7.138749e-01 4.227660e+00 8.269213e+00 1.135068e+01 9.322854e+00 4.922768e-01 -1.307547e+00 -5.387607e-01 -1.187161e-01 5.715604e-01 5.176085e-01 8.176208e-01 7.191810e-01 1.046130e+00 5.297859e-01 5.102178e-01 1.399848e-01 -2.850932e-01 -6.840512e-02 -2.371605e-01 -4.517122e-02 7.304537e-02 4.465648e-01 6.521026e-01 6.052494e-01 4.304794e-01 3.215956e-01 -1.616921e-01 -6.382210e-01 -1.056090e+00 -9.218701e-01 -3.872440e-03
<VARIANCE> 39
 2.947423e+01 4.067169e+01 4.334426e+01 4.034538e+01 4.258031e+01 5.443556e+01 7.099496e+01 4.659103e+01 4.133921e+01 4.649890e+01 5.170975e+01 3.767188e+01 4.166464e-02 2.777164e+00 3.171464e+00 3.299036e+00 4.083731e+00 4.582344e+00 5.174963e+00 6.193385e+00 2.946540e+00 4.232651e+00 5.156266e+00 6.578230e+00 6.807823e+00 3.851715e-03 3.767646e-01 6.160541e-01 5.236697e-01 7.258475e-01 6.085622e-01 7.304093e-01 1.297034e+00 6.224018e-01 6.399228e-01 7.565782e-01 6.897268e-01 7.462139e-01 5.469030e-04
<GCONST> 1.138615e+02
<MIXTURE> 24 5.048819e-02
<MEAN> 39
 -2.229765e+00 -1.692645e+00 4.611323e+00 6.899448e+00 6.864482e+00 6.736762e+00 4.602160e+00 5.280344e+00 5.461829e+00 4.262331e+00 3.293590e+00 7.231683e-01 1.269789e-01 1.422891e+00 1.519605e+00 -5.818744e-01 -1.134865e+00 -1.302864e+00 -1.300064e+00 -1.034986e+00 -8.381671e-01 -5.186872e-01 1.854135e-01 -3.828166e-02 3.494572e-01 1.146522e-01 5.290654e-01 1.321284e-01 -5.381405e-01 -7.933561e-01 -7.189389e-01 -6.930099e-01 -3.679363e-01 -5.319516e-01 -6.273968e-01 -1.683237e-01 -1.432043e-01 1.835971e-01 4.531759e-02
<VARIANCE> 39
 1.555247e+01 3.569309e+01 3.570529e+01 3.067347e+01 3.660825e+01 3.662881e+01 3.333526e+01 4.120151e+01 3.590456e+01 2.674375e+01 2.996383e+01 2.530207e+01 4.162748e-02 2.550057e+00 4.793388e+00 3.787896e+00 3.430292e+00 3.991422e+00 4.177348e+00 4.600071e+00 4.870986e+00 3.365968e+00 3.126502e+00 4.265963e+00 2.798592e+00 5.426571e-03 4.440838e-01 7.894862e-01 5.591365e-01 4.625854e-01 5.355938e-01 6.694708e-01 7.905875e-01 6.875319e-01 7.370335e-01 6.066453e-01 6.691841e-01 6.308080e-01 9.596689e-04
<GCONST> 1.076963e+02
<MIXTURE> 25 2.388608e-02
<MEAN> 39
 -1.547650e+00 1.960347e+00 5.482043e+00 5.481765e+00 9.181037e+00 9.602822e+00 5.704524e+00 6.777299e+00 7.476330e-01 -8.568611e-02 -4.356383e+00 -6.276038e+00 3.470067e-02 -2.816752e-01 1.357264e-01 6.327797e-02 1.584823e-01 3.639826e-02 -1.615810e-01 -1.054318e-01 -1.164631e-01 2.126206e-01 -1.287288e-02 -3.205417e-01 -1.396455e-02 -1.702059e-03 3.001665e-02 -6.224608e-02 -1.613888e-01 -1.921259e-01 -3.343963e-01 -2.945225e-01 -2.189613e-01 -1.604310e-01 1.904772e-01 1.379059e-01 3.275715e-01 4.006705e-01 3.046984e-03
<VARIANCE> 39
 2.197054e+01 3.424932e+01 1.743501e+01 4.991430e+01 2.306425e+01 3.668933e+01 2.797735e+01 2.661129e+01 2.581683e+01 3.687291e+01 4.187254e+01 5.922782e+01 1.171638e-02 5.957842e-01 7.933697e-01 1.730954e+00 1.552318e+00 1.477411e+00 1.805905e+00 1.696027e+00 2.570118e+00 2.759111e+00 2.105587e+00 2.655895e+00 2.636501e+00 6.480280e-04 5.312325e-02 1.021084e-01 2.478638e-01 3.202652e-01 3.875589e-01 3.389234e-01 4.015122e-01 5.140291e-01 5.716616e-01 4.304627e-01 5.399776e-01 5.118073e-01 7.669414e-05
<GCONST> 8.418544e+01
<MIXTURE> 26 1.516421e-02
<MEAN> 39
 -5.752689e+00 -4.890746e-01 7.848868e+00 5.349139e+00 6.091709e+00 9.071124e+00 4.266521e+00 5.650232e+00 3.677542e+00 3.779329e+00 3.183802e+00 1.424890e+00 -1.259867e-01 -2.776627e-02 2.802720e-01 -1.366501e-01 -1.189086e-01 -2.877412e-01 -2.065814e-01 -4.276124e-02 5.737931e-02 7.352571e-02 -1.085053e-01 1.954449e-01 -1.372328e-02 -2.060866e-03 5.675623e-02 -6.583037e-02 -2.933868e-02 8.277801e-02 2.570940e-02 -1.308380e-02 2.725956e-02 4.786664e-04 3.206813e-02 1.598573e-03 -2.530073e-02 -1.916185e-02 2.998801e-03
<VARIANCE> 39
 6.048372e+00 3.371975e+01 1.624409e+01 1.474245e+01 3.687798e+01 1.949991e+01 1.634280e+01 2.662010e+01 2.057705e+01 2.202133e+01 1.750082e+01 1.783169e+01 1.057945e-03 4.224024e-01 6.586783e-01 5.663468e-01 9.126193e-01 1.238113e+00 1.572802e+00 2.116133e+00 1.663145e+00 1.618127e+00 1.821846e+00 1.402589e+00 1.364968e+00 3.754082e-05 7.058074e-02 1.218746e-01 9.423906e-02 1.416448e-01 2.409978e-01 2.945415e-01 4.199201e-01 3.372388e-01 4.043061e-01 4.293201e-01 2.793048e-01 3.381466e-01 2.436974e-05
<GCONST> 6.325584e+01
<MIXTURE> 27 2.469421e-02
<MEAN> 39
 -1.682270e+00 -1.086381e+00 4.843838e+00 8.158022e+00 3.784310e+00 4.103480e+00 5.322210e+00 6.153479e+00 5.373822e+00 5.548103e+00 4.418975e+00 2.197607e+00 -3.157049e-02 1.007814e-01 3.846685e-01 8.916476e-02 -6.303391e-01 -2.647451e-01 1.668939e-01 1.881656e-01 -2.761316e-01 2.262760e-01 3.636370e-02 -8.259472e-02 1.225992e-01 -8.890386e-03 -4.433313e-02 6.812454e-02 -1.624143e-01 -2.564189e-01 2.276342e-02 2.153849e-01 -1.346303e-01 -1.552510e-01 -1.472582e-01 -1.649026e-01 -1.497525e-01 5.074784e-02 1.391741e-03
<VARIANCE> 39
 7.549522e+00 2.659172e+01 6.703055e+00 1.357963e+01 1.342249e+01 2.019713e+01 1.988395e+01 2.709820e+01 1.858977e+01 1.645272e+01 1.784268e+01 1.565599e+01 3.645435e-03 3.087626e-01 1.485058e+00 7.357904e-01 9.772719e-01 1.485688e+00 1.769861e+00 1.825538e+00 1.684302e+00 2.024224e+00 1.979400e+00 1.911274e+00 1.461290e+00 2.447173e-04 4.430370e-02 1.648375e-01 1.398632e-01 1.624905e-01 2.728663e-01 2.962627e-01 2.692102e-01 2.768699e-01 3.678802e-01 3.166920e-01 2.355351e-01 3.044009e-01 3.281864e-05
<GCONST> 6.527859e+01
<MIXTURE> 28 2.780575e-02
<MEAN> 39
 -1.507450e+00 -1.715249e+00 3.036241e-01 -2.576601e-02 1.240379e+00 2.163772e+00 -6.379991e-01 -6.971693e-02 3.091041e+00 -1.125558e+00 -1.581530e+00 -3.292314e-01 7.813114e-03 -1.295525e-01 1.064887e-01 1.362213e-01 2.283444e-01 1.818897e-02 1.678167e-02 -1.901941e-02 2.416632e-01 4.623800e-02 5.711273e-02 -5.730210e-02 2.628948e-02 -5.965824e-03 6.382526e-02 5.707315e-02 1.330065e-01 2.254444e-01 1.669877e-01 1.249790e-01 1.096313e-01 1.130747e-01 5.401731e-02 1.498976e-01 2.779258e-01 1.287586e-01 1.572700e-02
<VARIANCE> 39
 8.220390e+00 3.436574e+01 1.491207e+01 1.199647e+01 1.097562e+01 1.986033e+01 2.428454e+01 3.225885e+01 2.374551e+01 2.191377e+01 1.917586e+01 1.437541e+01 1.200811e-02 5.709940e-01 9.300752e-01 8.702235e-01 1.321055e+00 1.563868e+00 1.360985e+00 1.665057e+00 2.154454e+00 2.266408e+00 2.226800e+00 1.818033e+00 1.609847e+00 1.020222e-03 1.398393e-01 1.356224e-01 1.745044e-01 2.009103e-01 2.132786e-01 3.203860e-01 3.647473e-01 4.427904e-01 4.082576e-01 3.455067e-01 2.601073e-01 2.971468e-01 1.699212e-04
<GCONST> 7.433006e+01
<MIXTURE> 29 2.740629e-02
<MEAN> 39
 -1.183262e+00 -6.336297e+00 -1.535927e-01 5.789776e+00 6.704864e+00 2.906487e+00 -8.761747e-01 -1.856621e+00 1.065709e+00 2.599043e+00 4.227827e+00 3.588765e+00 2.693220e-02 4.771250e-02 5.020882e-01 5.464255e-01 -2.276901e-01 -2.333765e-01 7.148810e-02 -9.501313e-02 -1.260171e-01 2.806673e-02 -2.465181e-02 -1.954459e-01 -1.584929e-01 -1.772060e-02 1.500873e-02 1.360508e-01 1.843870e-01 -2.114534e-02 -1.141536e-01 1.307329e-02 1.962924e-01 3.852333e-01 4.185593e-01 -4.761361e-02 -4.255534e-01 -2.966883e-01 4.251536e-03
<VARIANCE> 39
 1.431236e+01 2.915965e+01 2.111643e+01 3.251720e+01 2.739510e+01 3.191395e+01 2.181355e+01 3.325327e+01 2.374430e+01 3.345773e+01 2.662448e+01 1.765213e+01 1.327828e-02 2.804214e-01 5.914516e-01 7.733839e-01 1.284903e+00 2.172023e+00 2.470575e+00 1.928017e+00 2.503351e+00 2.747684e+00 2.286582e+00 2.672084e+00 2.042698e+00 3.248488e-04 3.570829e-02 1.026042e-01 1.122338e-01 2.004248e-01 3.944809e-01 4.322648e-01 3.000935e-01 3.763727e-01 3.910198e-01 4.071472e-01 3.308013e-01 3.929113e-01 4.116255e-05
<GCONST> 7.573637e+01
<MIXTURE> 30 2.780575e-02
<MEAN> 39
 -1.507450e+00 -1.715249e+00 3.036241e-01 -2.576601e-02 1.240379e+00 2.163772e+00 -6.379991e-01 -6.971693e-02 3.091041e+00 -1.125558e+00 -1.581530e+00 -3.292314e-01 7.813114e-03 -1.295525e-01 1.064887e-01 1.362213e-01 2.283444e-01 1.818897e-02 1.678167e-02 -1.901941e-02 2.416632e-01 4.623800e-02 5.711273e-02 -5.730210e-02 2.628948e-02 -5.965824e-03 6.382526e-02 5.707315e-02 1.330065e-01 2.254444e-01 1.669877e-01 1.249790e-01 1.096313e-01 1.130747e-01 5.401731e-02 1.498976e-01 2.779258e-01 1.287586e-01 1.572700e-02
<VARIANCE> 39
 8.220390e+00 3.436574e+01 1.491207e+01 1.199647e+01 1.097562e+01 1.986033e+01 2.428454e+01 3.225885e+01 2.374551e+01 2.191377e+01 1.917586e+01 1.437541e+01 1.200811e-02 5.709940e-01 9.300752e-01 8.702235e-01 1.321055e+00 1.563868e+00 1.360985e+00 1.665057e+00 2.154454e+00 2.266408e+00 2.226800e+00 1.818033e+00 1.609847e+00 1.020222e-03 1.398393e-01 1.356224e-01 1.745044e-01 2.009103e-01 2.132786e-01 3.203860e-01 3.647473e-01 4.427904e-01 4.082576e-01 3.455067e-01 2.601073e-01 2.971468e-01 1.699212e-04
<GCONST> 7.433006e+01
~h "#i"
<BEGINHMM>
<NUMSTATES> 15
<STATE> 2
<NUMMIXES> 20
<MIXTURE> 2 2.861070e-02
<MEAN> 39
 -1.493030e+00 1.127873e+01 -4.330870e+00 -2.059351e+00 -6.773408e+00 -5.369217e+00 1.952960e+00 -1.112108e+00 1.330361e+00 -2.025077e+00 -1.299337e+00 3.881333e+00 7.687384e-01 -1.933689e+00 -2.080810e-01 -6.982589e-01 -2.379779e-01 -4.515326e-01 -3.899415e-01 -1.356094e+00 -1.571436e+00 -2.140173e-01 1.309595e+00 3.852911e+00 4.456771e+00 5.659315e-02 1.157093e-01 -4.538355e-01 5.213099e-01 3.487180e-01 5.425819e-01 5.943022e-01 1.635995e-01 4.560330e-01 2.314557e-01 5.894721e-01 2.307595e-01 -7.033347e-02 -2.444865e-02
<VARIANCE> 39
 2.311077e+01 2.466175e+01 2.778183e+01 1.554612e+01 1.847858e+01 9.818754e+00 1.408170e+01 1.030908e+01 5.468456e+01 8.108366e+01 7.761759e+01 7.950474e+01 6.198740e-03 3.433948e-01 7.307151e-01 6.228659e-01 8.985934e-01 5.704620e-01 9.602216e-01 6.207408e-01 1.513442e+00 1.905601e+00 3.655281e+00 1.765924e+00 2.326141e+00 4.380457e-04 1.939820e-01 3.056892e-01 4.892990e-01 2.637086e-01 3.109981e-01 2.791490e-01 3.753874e-01 1.787442e-01 3.310737e-01 9.574064e-01 8.254470e-01 1.008040e+00 5.349015e-04
<GCONST> 8.041972e+01
<MIXTURE> 3 5.569975e-03
<MEAN> 39
 -5.443775e+00 1.198262e+01 -4.362055e+00 -3.431816e+00 -4.596437e+00 -3.650191e+00 3.604345e+00 5.692356e+00 1.515693e+01 1.597048e+01 1.027442e+01 2.753739e+00 9.147037e-01 -8.775136e-01 5.230467e-02 1.389317e-01 -1.820692e-02 -2.364528e-01 3.700866e-02 -6.122701e-01 2.937086e-01 2.409579e+00 2.916485e+00 1.039240e+00 8.298936e-01 2.318224e-02 4.637086e-01 -2.998105e-01 -1.375434e-01 -2.450968e-01 -1.526226e-01 2.176201e-01 5.833931e-01 2.947749e-01 -4.318885e-01 -1.027763e+00 -1.190639e+00 -7.705069e-01 -1.501070e-02
<VARIANCE> 39
 1.233518e+01 1.793477e+01 1.114928e+01 2.498314e+01 9.519446e+00 1.096485e+01 2.478703e+01 2.344841e+01 5.846211e+01 3.212555e+01 3.422718e+01 1.127041e+02 8.178985e-04 4.575734e-01 7.563486e-01 1.117084e+00 9.759587e-01 7.202116e-01 3.650180e-01 1.465668e+00 1.090934e+00 4.564217e+00 3.033279e+00 3.777129e+00 2.504194e+00 1.555557e-04 1.273198e-01 1.162976e-01 2.173301e-01 3.186937e-01 7.774247e-02 2.663409e-01 3.158336e-01 2.957992e-01 8.275181e-01 5.916563e-01 6.026593e-01 6.081368e-01 1.022911e-04
<GCONST> 7.263510e+01
<MIXTURE> 4 1.217626e-01
<MEAN> 39
 6.764940e-01 9.318060e+00 -1.210048e+00 -1.813307e+00 -6.008511e+00 -5.100233e+00 -4.336848e+00 -2.823420e+00 7.890924e-01 -2.404273e+00 1.752750e+00 -1.519876e+00 6.793925e-01 -9.419469e-02 1.466664e+00 -1.786694e-01 1.175371e+00 -1.088141e+00 3.937943e-01 -1.351715e+00 -3.220847e-01 -7.270336e-01 -4.705316e-01 -8.507372e-02 -8.817957e-01 1.206549e-02 2.720163e-02 -2.240106e-01 1.783063e-01 -2.665546e-01 1.328974e-01 2.673606e-01 5.236149e-02 4.281909e-01 -4.934672e-02 1.927239e-01 -1.586741e-01 2.030935e-01 7.180705e-03
<VARIANCE> 39
 1.291525e+01 4.266185e+01 2.934719e+01 2.679154e+01 2.920876e+01 2.596788e+01 5.544653e+01 3.048710e+01 2.751547e+01 5.233254e+01 6.816193e+01 6.183224e+01 1.988334e-02 8.455999e-01 1.766637e+00 2.383332e+00 2.395816e+00 1.827790e+00 2.690133e+00 2.707719e+00 4.345279e+00 3.990137e+00 3.003986e+00 4.128206e+00 4.179096e+00 7.764981e-04 1.728103e-01 5.382050e-01 4.013842e-01 3.585057e-01 3.746847e-01 6.019452e-01 5.605732e-01 4.506920e-01 7.154899e-01 6.444799e-01 7.609423e-01 7.900670e-01 7.237076e-05
<GCONST> 9.679816e+01
<MIXTURE> 5 2.250936e-02
<MEAN> 39
 -3.003801e-01 3.603112e-01 -2.341842e+00 -7.608580e+00 -1.696091e+00 1.339417e+00 8.707655e+00 6.657903e+00 6.335997e+00 9.130468e-01 -4.732172e-01 -3.598746e+00 6.595252e-01 -8.041660e-01 2.719132e+00 -9.398922e-01 1.534210e-01 -2.029606e-01 -2.499879e+00 -9.174469e-01 1.151652e-02 2.887789e-01 1.164863e+00 1.489856e+00 6.572378e-01 2.284232e-03 1.205387e-01 -1.222426e-01 7.254073e-02 9.350075e-01 -2.041057e-01 -1.504471e-01 -7.360229e-01 -5.822262e-01 -6.679454e-01 4.142804e-02 -4.280393e-02 2.279605e-01 6.089552e-03
<VARIANCE> 39
 8.622428e+00 9.728445e+01 2.877072e+01 2.127846e+01 2.945504e+01 1.034060e+02 5.651972e+01 3.468167e+01 7.908738e+01 1.519727e+02 1.131328e+02 6.038276e+01 2.280503e-02 1.663878e+00 4.388366e+00 2.402830e+00 6.104896e+00 3.880116e+00 7.316710e+00 9.553561e+00 7.534169e+00 1.239953e+01 1.545864e+01 9.505362e+00 9.064488e+00 7.051794e-03 3.285831e-01 6.542945e-01 7.543361e-01 9.901471e-01 6.970263e-01 1.637199e+00 1.267565e+00 1.172911e+00 1.976393e+00 2.798471e+00 1.839850e+00 1.768609e+00 7.487122e-04
<GCONST> 1.263179e+02
<MIXTURE> 6 2.959522e-02
<MEAN> 39
 1.500865e+00 1.049903e+01 7.228254e-01 -2.689777e+00 -3.442951e+00 -3.277281e+00 -5.349234e+00 6.912638e-01 -5.822517e-01 -1.291867e+00 2.486769e+00 1.052396e+00 6.852618e-01 -1.520102e-02 5.991462e-01 -1.239252e-01 -1.134778e-01 -2.067252e-01 -3.656383e-01 -3.053528e-02 1.831961e-01 -2.013096e-01 -1.724280e-01 -2.319345e-01 -4.766254e-02 9.087192e-03 -8.022449e-02 1.076375e-01 -1.191548e-01 -1.183859e-02 -1.572851e-01 -1.646504e-01 -7.849714e-02 -1.045156e-01 -1.101061e-01 -6.780388e-02 -7.874842e-02 -1.599033e-01 8.657199e-03
<VARIANCE> 39
 8.377704e+00 3.045074e+01 1.741158e+01 2.638231e+01 2.426637e+01 2.590088e+01 3.079901e+01 3.480654e+01 3.387342e+01 2.387685e+01 2.493179e+01 5.065332e+01 2.929441e-02 2.793429e-01 5.761470e-01 3.000039e-01 6.039079e-01 9.580647e-01 1.088589e+00 1.448193e+00 7.765672e-01 1.807806e+00 1.060390e+00 1.343956e+00 1.046050e+00 3.782297e-04 4.409461e-02 7.599787e-02 8.100124e-02 1.495537e-01 1.868550e-01 1.935037e-01 2.527250e-01 1.929871e-01 3.129750e-01 2.093481e-01 1.661117e-01 2.282292e-01 6.808365e-05
<GCONST> 6.476661e+01
<MIXTURE> 7 2.959522e-02
<MEAN> 39
 1.500865e+00 1.049903e+01 7.228254e-01 -2.689777e+00 -3.442951e+00 -3.277281e+00 -5.349234e+00 6.912638e-01 -5.822517e-01 -1.291867e+00 2.486769e+00 1.052396e+00 6.852618e-01 -1.520102e-02 5.991462e-01 -1.239252e-01 -1.134778e-01 -2.067252e-01 -3.656383e-01 -3.053528e-02 1.831961e-01 -2.013096e-01 -1.724280e-01 -2.319345e-01 -4.766254e-02 9.087192e-03 -8.022449e-02 1.076375e-01 -1.191548e-01 -1.183859e-02 -1.572851e-01 -1.646504e-01 -7.849714e-02 -1.045156e-01 -1.101061e-01 -6.780388e-02 -7.874842e-02 -1.599033e-01 8.657199e-03
<VARIANCE> 39
 8.377704e+00 3.045074e+01 1.741158e+01 2.638231e+01 2.426637e+01 2.590088e+01 3.079901e+01 3.480654e+01 3.387342e+01 2.387685e+01 2.493179e+01 5.065332e+01 2.929441e-02 2.793429e-01 5.761470e-01 3.000039e-01 6.039079e-01 9.580647e-01 1.088589e+00 1.448193e+00 7.765672e-01 1.807806e+00 1.060390e+00 1.343956e+00 1.046050e+00 3.782297e-04 4.409461e-02 7.599787e-02 8.100124e-02 1.495537e-01 1.868550e-01 1.935037e-01 2.527250e-01 1.929871e-01 3.129750e-01 2.093481e-01 1.661117e-01 2.282292e-01 6.808365e-05
<GCONST> 6.476661e+01
<MIXTURE> 8 1.697366e-02
<MEAN> 39
 4.770485e+00 8.215314e+00 -7.571619e-01 -3.809378e+00 -8.611588e+00 -7.329045e+00 -8.455455e+00 -2.911094e+00 -4.028787e+00 -1.615124e+00 1.458190e+00 1.472296e-01 6.548163e-01 3.523622e-01 2.888726e+00 -8.554233e-01 -1.384163e+00 -1.243003e+00 -1.427684e+00 -1.827223e+00 -8.238133e-02 -1.601774e+00 -1.246132e+00 -5.703381e-01 -2.197022e+00 1.190054e-01 -8.718578e-01 -5.731797e-01 1.163078e-01 5.332584e-01 9.960767e-01 1.086440e+00 9.582044e-01 8.518795e-01 7.439718e-01 4.096266e-01 -1.589215e-02 -2.262793e-03 -3.931015e-02
<VARIANCE> 39
 8.615261e+00 6.594456e+01 4.224424e+01 3.371806e+01 2.757683e+01 2.138745e+01 3.872135e+01 1.662730e+01 2.119961e+01 4.576106e+01 3.628674e+01 7.310971e+01 2.294225e-02 1.645603e+00 3.620990e+00 2.198679e+00 2.753538e+00 2.940416e+00 3.306075e+00 3.207179e+00 2.327755e+00 4.244226e+00 3.301258e+00 6.463456e+00 4.604703e+00 5.776745e-03 1.412632e-01 5.112253e-01 5.618418e-01 5.033448e-01 5.174051e-01 2.688735e-01 3.466896e-01 2.997260e-01 3.796430e-01 5.655411e-01 6.890592e-01 1.046373e+00 2.619837e-04
<GCONST> 9.962317e+01
<MIXTURE> 9 2.250936e-02
<MEAN> 39
 -3.003801e-01 3.603112e-01 -2.341842e+00 -7.608580e+00 -1.696091e+00 1.339417e+00 8.707655e+00 6.657903e+00 6.335997e+00 9.130468e-01 -4.732172e-01 -3.598746e+00 6.595252e-01 -8.041660e-01 2.719132e+00 -9.398922e-01 1.534210e-01 -2.029606e-01 -2.499879e+00 -9.174469e-01 1.151652e-02 2.887789e-01 1.164863e+00 1.489856e+00 6.572378e-01 2.284232e-03 1.205387e-01 -1.222426e-01 7.254073e-02 9.350075e-01 -2.041057e-01 -1.504471e-01 -7.360229e-01 -5.822262e-01 -6.679454e-01 4.142804e-02 -4.280393e-02 2.279605e-01 6.089552e-03
<VARIANCE> 39
 8.622428e+00 9.728445e+01 2.877072e+01 2.127846e+01 2.945504e+01 1.034060e+02 5.651972e+01 3.468167e+01 7.908738e+01 1.519727e+02 1.131328e+02 6.038276e+01 2.280503e-02 1.663878e+00 4.388366e+00 2.402830e+00 6.104896e+00 3.880116e+00 7.316710e+00 9.553561e+00 7.534169e+00 1.239953e+01 1.545864e+01 9.505362e+00 9.064488e+00 7.051794e-03 3.285831e-01 6.542945e-01 7.543361e-01 9.901471e-01 6.970263e-01 1.637199e+00 1.267565e+00 1.172911e+00 1.976393e+00 2.798471e+00 1.839850e+00 1.768609e+00 7.487122e-04
<GCONST> 1.263179e+02
<MIXTURE> 10 2.959522e-02
<MEAN> 39
 1.500865e+00 1.049903e+01 7.228254e-01 -2.689777e+00 -3.442951e+00 -3.277281e+00 -5.349234e+00 6.912638e-01 -5.822517e-01 -1.291867e+00 2.486769e+00 1.052396e+00 6.852618e-01 -1.520102e-02 5.991462e-01 -1.239252e-01 -1.134778e-01 -2.067252e-01 -3.656383e-01 -3.053528e-02 1.831961e-01 -2.013096e-01 -1.724280e-01 -2.319345e-01 -4.766254e-02 9.087192e-03 -8.022449e-02 1.076375e-01 -1.191548e-01 -1.183859e-02 -1.572851e-01 -1.646504e-01 -7.849714e-02 -1.045156e-01 -1.101061e-01 -6.780388e-02 -7.874842e-02 -1.599033e-01 8.657199e-03
<VARIANCE> 39
 8.377704e+00 3.045074e+01 1.741158e+01 2.638231e+01 2.426637e+01 2.590088e+01 3.079901e+01 3.480654e+01 3.387342e+01 2.387685e+01 2.493179e+01 5.065332e+01 2.929441e-02 2.793429e-01 5.761470e-01 3.000039e-01 6.039079e-01 9.580647e-01 1.088589e+00 1.448193e+00 7.765672e-01 1.807806e+00 1.060390e+00 1.343956e+00 1.046050e+00 3.782297e-04 4.409461e-02 7.599787e-02 8.100124e-02 1.495537e-01 1.868550e-01 1.935037e-01 2.527250e-01 1.929871e-01 3.129750e-01 2.093481e-01 1.661117e-01 2.282292e-01 6.808365e-05
<GCONST> 6.476661e+01
<MIXTURE> 11 1.334109e-01
<MEAN> 39
 -1.221202e+00 1.049598e+01 2.574376e+00 -7.459243e+00 -1.090201e+00 -8.808967e+00 -2.384161e+00 1.471289e+00 2.263366e+00 4.623106e-01 2.079401e+00 1.107968e+00 8.009909e-01 -8.143218e-01 3.086903e+00 -1.490510e+00 1.755902e+00 8.451015e-02 -1.533288e+00 -1.140473e+00 -1.248828e+00 -6.427119e-01 -1.824682e+00 1.119167e+00 -1.139728e-02 -2.507875e-03 3.493670e-01 -8.602362e-01 -1.878636e-01 8.526289e-01 -8.781490e-01 7.142101e-01 3.188934e-01 -4.541171e-02 -5.466921e-01 -4.017172e-02 -3.015683e-01 -3.933567e-01 3.624568e-03
<VARIANCE> 39
 9.520983e+00 2.658835e+01 1.866664e+01 2.442039e+01 1.726622e+01 2.634702e+01 4.985519e+01 2.557278e+01 3.097351e+01 2.576571e+01 2.523827e+01 2.560065e+01 8.362168e-03 5.624159e-01 1.570872e+00 9.777392e-01 1.989352e+00 2.368688e+00 3.545342e+00 2.483714e+00 2.493127e+00 2.809801e+00 3.029499e+00 3.274732e+00 3.081080e+00 2.571894e-04 1.073044e-01 2.166631e-01 2.657829e-01 5.215842e-01 2.840141e-01 4.211090e-01 4.579555e-01 4.709546e-01 5.164553e-01 4.166937e-01 5.123867e-01 3.790122e-01 2.831222e-05
<GCONST> 8.261095e+01
<MIXTURE> 12 1.697366e-02
<MEAN> 39
 4.770485e+00 8.215314e+00 -7.571619e-01 -3.809378e+00 -8.611588e+00 -7.329045e+00 -8.455455e+00 -2.911094e+00 -4.028787e+00 -1.615124e+00 1.458190e+00 1.472296e-01 6.548163e-01 3.523622e-01 2.888726e+00 -8.554233e-01 -1.384163e+00 -1.243003e+00 -1.427684e+00 -1.827223e+00 -8.238133e-02 -1.601774e+00 -1.246132e+00 -5.703381e-01 -2.197022e+00 1.190054e-01 -8.718578e-01 -5.731797e-01 1.163078e-01 5.332584e-01 9.960767e-01 1.086440e+00 9.582044e-01 8.518795e-01 7.439718e-01 4.096266e-01 -1.589215e-02 -2.262793e-03 -3.931015e-02
<VARIANCE> 39
 8.615261e+00 6.594456e+01 4.224424e+01 3.371806e+01 2.757683e+01 2.138745e+01 3.872135e+01 1.662730e+01 2.119961e+01 4.576106e+01 3.628674e+01 7.310971e+01 2.294225e-02 1.645603e+00 3.620990e+00 2.198679e+00 2.753538e+00 2.940416e+00 3.306075e+00 3.207179e+00 2.327755e+00 4.244226e+00 3.301258e+00 6.463456e+00 4.604703e+00 5.776745e-03 1.412632e-01 5.112253e-01 5.618418e-01 5.033448e-01 5.174051e-01 2.688735e-01 3.466896e-01 2.997260e-01 3.796430e-01 5.655411e-01 6.890592e-01 1.046373e+00 2.619837e-04
<GCONST> 9.962317e+01
<MIXTURE> 13 1.285193e-01
<MEAN> 39
 2.229846e+00 1.205298e+01 -2.219588e+00 8.275076e-01 -2.644510e+00 -3.578988e+00 4.054721e+00 3.640985e+00 2.928333e+00 5.500557e+00 9.488321e-01 5.706095e+00 6.511230e-01 3.059110e-01 1.144940e+00 -1.116453e-01 3.194404e-01 -6.503901e-01 1.005037e-01 -4.274333e-01 -1.720910e-01 -4.533131e-01 3.221890e-01 -4.861344e-01 7.606530e-01 1.056718e-02 -1.204063e-01 -3.989251e-01 -1.924096e-02 -4.742047e-01 -1.244223e-01 -1.794011e-01 -3.736157e-01 -3.067757e-01 -2.940681e-01 -5.415529e-01 -3.497548e-01 -4.133782e-01 1.349144e-02
<VARIANCE> 39
 1.145104e+01 2.201834e+01 2.801960e+01 2.742022e+01 1.790400e+01 2.188049e+01 1.658857e+01 2.397991e+01 2.568814e+01 2.727129e+01 4.057018e+01 3.131781e+01 1.549921e-02 6.800557e-01 2.112293e+00 9.789438e-01 1.817201e+00 1.514710e+00 2.576484e+00 2.324028e+00 3.060625e+00 2.451764e+00 2.084323e+00 3.700052e+00 3.139360e+00 1.714860e-03 1.282766e-01 3.199333e-01 2.456877e-01 2.895061e-01 3.738138e-01 4.167312e-01 4.019797e-01 4.284463e-01 3.892096e-01 3.454818e-01 3.883459e-01 4.835823e-01 1.399623e-04
<GCONST> 8.530927e+01
<MIXTURE> 14 1.697366e-02
<MEAN> 39
 4.770485e+00 8.215314e+00 -7.571619e-01 -3.809378e+00 -8.611588e+00 -7.329045e+00 -8.455455e+00 -2.911094e+00 -4.028787e+00 -1.615124e+00 1.458190e+00 1.472296e-01 6.548163e-01 3.523622e-01 2.888726e+00 -8.554233e-01 -1.384163e+00 -1.243003e+00 -1.427684e+00 -1.827223e+00 -8.238133e-02 -1.601774e+00 -1.246132e+00 -5.703381e-01 -2.197022e+00 1.190054e-01 -8.718578e-01 -5.731797e-01 1.163078e-01 5.332584e-01 9.960767e-01 1.086440e+00 9.582044e-01 8.518795e-01 7.439718e-01 4.096266e-01 -1.589215e-02 -2.262793e-03 -3.931015e-02
<VARIANCE> 39
 8.615261e+00 6.594456e+01 4.224424e+01 3.371806e+01 2.757683e+01 2.138745e+01 3.872135e+01 1.662730e+01 2.119961e+01 4.576106e+01 3.628674e+01 7.310971e+01 2.294225e-02 1.645603e+00 3.620990e+00 2.198679e+00 2.753538e+00 2.940416e+00 3.306075e+00 3.207179e+00 2.327755e+00 4.244226e+00 3.301258e+00 6.463456e+00 4.604703e+00 5.776745e-03 1.412632e-01 5.112253e-01 5.618418e-01 5.033448e-01 5.174051e-01 2.688735e-01 3.466896e-01 2.997260e-01 3.796430e-01 5.655411e-01 6.890592e-01 1.046373e+00 2.619837e-04
<GCONST> 9.962317e+01
<MIXTURE> 15 5.749356e-02
<MEAN> 39
 2.000762e+00 1.019334e+01 -4.671263e+00 -3.665253e+00 -5.484950e+00 -3.743401e+00 3.380770e+00 4.065238e+00 4.625591e+00 4.515376e+00 1.268173e+00 4.597115e+00 7.515745e-01 -6.705046e-01 1.361035e+00 -2.730304e+00 -2.068396e+00 -2.667101e+00 -2.987518e+00 -1.375398e+00 -2.515089e+00 -1.342956e+00 -9.886990e-01 -1.384529e-01 2.328970e+00 1.644768e-01 -5.757630e-01 -1.018817e+00 1.024318e+00 8.708518e-01 1.015941e+00 1.063679e+00 -2.079885e-01 -1.076821e-01 -5.575702e-01 -2.682183e-01 -1.990171e-02 -2.522950e-01 -5.351869e-02
<VARIANCE> 39
 1.329188e+01 4.159425e+01 1.972194e+01 1.812056e+01 2.641788e+01 2.137207e+01 2.539893e+01 1.720096e+01 3.270092e+01 2.041776e+01 2.794755e+01 4.924406e+01 9.029857e-03 2.480940e+00 2.734927e+00 1.974712e+00 1.925070e+00 1.822505e+00 1.705783e+00 2.498712e+00 1.296484e+00 3.362711e+00 5.680680e+00 7.094001e+00 5.408444e+00 3.557898e-03 1.791614e-01 2.581123e-01 2.265306e-01 3.287925e-01 4.663044e-01 3.360249e-01 4.516705e-01 4.098145e-01 4.046829e-01 5.483112e-01 6.292252e-01 6.472086e-01 1.555901e-04
<GCONST> 9.144527e+01
<MIXTURE> 16 8.631989e-02
<MEAN> 39
 1.231297e+00 -6.417935e-02 5.938816e+00 -9.135352e+00 -5.757242e+00 2.924426e-01 3.689801e-01 2.388612e+00 3.147138e+00 4.527695e+00 -2.715764e+00 -8.941066e-01 8.000785e-01 -1.419029e+00 4.354354e+00 1.959185e-01 -2.116244e+00 2.037256e+00 -2.103841e+00 -3.109828e+00 6.781053e-04 1.292840e+00 -1.270511e+00 1.200905e+00 1.072946e+00 -9.175718e-03 1.601290e-01 2.448768e-01 -1.037728e+00 1.401669e+00 2.924144e-01 -8.743107e-01 3.148580e-01 1.917077e-01 -7.887735e-01 -8.610244e-01 5.782611e-01 -2.098714e-02 1.957772e-03
<VARIANCE> 39
 1.236448e+01 3.347084e+01 1.266902e+01 1.768682e+01 2.051647e+01 3.273158e+01 5.594373e+01 2.853404e+01 3.177477e+01 3.311543e+01 2.901528e+01 3.142359e+01 6.174904e-03 4.616311e-01 1.483009e+00 1.461593e+00 2.445984e+00 1.536088e+00 3.130718e+00 2.811257e+00 3.180518e+00 3.286739e+00 3.077933e+00 2.510967e+00 2.500276e+00 2.196190e-04 8.829240e-02 2.452401e-01 2.570795e-01 3.659895e-01 6.022483e-01 5.130404e-01 7.420537e-01 4.874581e-01 5.439675e-01 8.087895e-01 5.515995e-01 5.582218e-01 2.790990e-05
<GCONST> 8.519728e+01
<MIXTURE> 17 5.569975e-03
<MEAN> 39
 -5.443775e+00 1.198262e+01 -4.362055e+00 -3.431816e+00 -4.596437e+00 -3.650191e+00 3.604345e+00 5.692356e+00 1.515693e+01 1.597048e+01 1.027442e+01 2.753739e+00 9.147037e-01 -8.775136e-01 5.230467e-02 1.389317e-01 -1.820692e-02 -2.364528e-01 3.700866e-02 -6.122701e-01 2.937086e-01 2.409579e+00 2.916485e+00 1.039240e+00 8.298936e-01 2.318224e-02 4.637086e-01 -2.998105e-01 -1.375434e-01 -2.450968e-01 -1.526226e-01 2.176201e-01 5.833931e-01 2.947749e-01 -4.318885e-01 -1.027763e+00 -1.190639e+00 -7.705069e-01 -1.501070e-02
<VARIANCE> 39
 1.233518e+01 1.793477e+01 1.114928e+01 2.498314e+01 9.519446e+00 1.096485e+01 2.478703e+01 2.344841e+01 5.846211e+01 3.212555e+01 3.422718e+01 1.127041e+02 8.178985e-04 4.575734e-01 7.563486e-01 1.117084e+00 9.759587e-01 7.202116e-01 3.650180e-01 1.465668e+00 1.090934e+00 4.564217e+00 3.033279e+00 3.777129e+00 2.504194e+00 1.555557e-04 1.273198e-01 1.162976e-01 2.173301e-01 3.186937e-01 7.774247e-02 2.663409e-01 3.158336e-01 2.957992e-01 8.275181e-01 5.916563e-01 6.026593e-01 6.081368e-01 1.022911e-04
<GCONST> 7.263510e+01
<MIXTURE> 18 1.011775e-01
<MEAN> 39
 -1.967479e+00 7.609716e+00 -2.688198e+00 -1.177586e+01 -2.990308e+00 -7.780500e+00 -3.134042e+00 4.012138e+00 -2.868732e+00 -1.649962e+00 -2.079285e+00 -6.364659e+00 8.376631e-01 -5.004720e-02 1.956306e+00 -1.001158e+00 1.322509e+00 -6.175027e-01 -1.543277e+00 4.711704e-01 -5.117322e-01 -1.184552e+00 1.110894e+00 -1.132095e+00 6.293919e-01 -1.530603e-02 2.103347e-01 -2.272085e-01 2.944823e-01 4.953819e-01 -1.471788e-01 8.472493e-01 3.627964e-02 -3.542147e-01 1.366201e-01 -1.467066e-01 -5.521623e-02 7.117758e-01 -3.384415e-04
<VARIANCE> 39
 7.037890e+00 1.894534e+01 2.064716e+01 2.471536e+01 2.476641e+01 3.608968e+01 4.105247e+01 3.015662e+01 3.644551e+01 4.481125e+01 3.949118e+01 2.806706e+01 4.458679e-03 4.897765e-01 9.101982e-01 1.418096e+00 1.789999e+00 2.919969e+00 4.820232e+00 2.623951e+00 2.370084e+00 4.168308e+00 5.650702e+00 4.010265e+00 4.761579e+00 2.472365e-04 5.637036e-02 1.744144e-01 1.962747e-01 4.020683e-01 6.430941e-01 6.245588e-01 4.293904e-01 4.828770e-01 5.812480e-01 8.013564e-01 6.822978e-01 5.037961e-01 2.711036e-05
<GCONST> 8.612250e+01
<MIXTURE> 19 6.135464e-02
<MEAN> 39
 1.822208e+00 1.175790e+01 -5.486932e+00 -3.842330e+00 -3.633773e+00 -2.911520e+00 -4.606955e-01 4.435724e-01 -5.516212e+00 -1.582475e+00 -9.057055e+00 -2.882289e+00 6.859891e-01 2.353644e-01 5.546799e-01 -1.072863e-01 5.294835e-01 -3.920904e-01 2.555350e-01 -4.409811e-02 -6.964195e-01 -5.382810e-01 -1.848366e-01 3.672168e-03 1.097911e+00 8.277844e-04 -1.553207e-01 -1.363739e-03 2.049869e-01 6.450856e-02 2.640815e-02 -3.767278e-01 -2.383935e-01 -9.072249e-02 2.098733e-01 7.536671e-02 6.057454e-01 2.539519e-01 1.120767e-02
<VARIANCE> 39
 1.457727e+01 1.856036e+01 8.411029e+00 1.630113e+01 1.251716e+01 7.469038e+00 2.498853e+01 2.723781e+01 2.098569e+01 2.006843e+01 2.149928e+01 4.451250e+01 6.642355e-03 5.522252e-01 7.696953e-01 7.200654e-01 9.958619e-01 1.233412e+00 1.658489e+00 2.717510e+00 1.361793e+00 2.488008e+00 1.981391e+00 3.692115e+00 2.801012e+00 6.464126e-04 9.501898e-02 1.049334e-01 1.398884e-01 1.660083e-01 1.476913e-01 2.753675e-01 4.625268e-01 2.491499e-01 3.378189e-01 4.313977e-01 4.233002e-01 6.265925e-01 3.721137e-05
<GCONST> 7.138957e+01
<MIXTURE> 20 8.548326e-02
<MEAN> 39
 2.049220e+00 1.084085e+01 -1.311694e-01 -3.578600e-02 -4.628484e+00 -1.440595e+00 -2.204683e+00 3.885631e+00 1.155362e+00 1.677220e+00 2.552276e-01 1.025981e+00 6.200595e-01 3.492903e-01 3.768636e+00 -7.893441e-01 -1.588194e+00 -2.183860e+00 -1.757615e+00 -1.890650e+00 -7.834164e-01 -1.268299e+00 -1.223849e+00 -5.104796e-01 -4.062962e-01 1.558659e-01 -5.330719e-01 -9.789418e-01 -2.397441e-03 -8.111959e-02 2.973540e-01 1.784914e-01 2.905965e-01 -2.876438e-01 6.584032e-03 -2.470422e-01 1.272166e-01 6.026714e-02 -2.444475e-02
<VARIANCE> 39
 1.288755e+01 4.330547e+01 1.773016e+01 2.064287e+01 2.115444e+01 2.125125e+01 4.516667e+01 4.073742e+01 4.083430e+01 4.371421e+01 3.459107e+01 3.253797e+01 1.678274e-02 1.080274e+00 3.542228e+00 2.679229e+00 1.661460e+00 3.155487e+00 3.417891e+00 3.482946e+00 4.184077e+00 2.634645e+00 2.216909e+00 5.478110e+00 4.326509e+00 3.595167e-03 1.818293e-01 5.084785e-01 2.544619e-01 4.516930e-01 2.834550e-01 3.693467e-01 6.370033e-01 5.486960e-01 6.026443e-01 5.036868e-01 7.067973e-01 4.581900e-01 5.987593e-04
<GCONST> 9.755803e+01
<STATE> 3
<NUMMIXES> 20
<MIXTURE> 1 6.189521e-04
<MEAN> 39
 -9.222595e+00 1.809764e+01 -6.699032e+00 -3.396331e+00 -1.109437e+01 -5.139930e+00 -9.997172e+00 -6.728329e+00 6.315575e-01 -1.274921e+00 -2.745842e+00 1.092233e+01 7.603796e-01 9.300781e-01 2.345730e+00 2.992044e+00 2.299537e+00 1.047943e+00 4.057105e+00 4.249475e+00 1.445921e+00 2.896781e+00 2.139589e+00 1.963868e+00 2.581239e+00 1.365488e-02 3.678879e-01 3.823724e-01 3.414462e-01 4.357353e-01 6.398753e-01 1.196059e-01 4.225729e-01 5.186262e-01 -5.980121e-02 -4.834636e-02 4.332135e-01 -3.406338e-02 3.558413e-03
<VARIANCE> 39
 4.872061e-01 8.793840e-01 4.467797e-01 5.986339e-01 4.655360e-01 5.547996e-01 5.233102e-01 5.238749e-01 4.623668e-01 4.285940e-01 4.554256e-01 4.065517e-01 8.178985e-04 2.131719e-02 2.467501e-02 2.295795e-02 3.262999e-02 2.705516e-02 3.277762e-02 3.157425e-02 3.330883e-02 3.002589e-02 2.830696e-02 2.829966e-02 2.573832e-02 3.754082e-05 3.006852e-03 3.204699e-03 3.548016e-03 5.152391e-03 4.554176e-03 5.507925e-03 5.410463e-03 5.677049e-03 5.208369e-03 4.984413e-03 4.887285e-03 4.422382e-03 3.730628e-06
<GCONST> -7.391187e+01
<MIXTURE> 2 1.901891e-02
<MEAN> 39
 -4.830807e+00 8.533936e+00 -9.420440e+00 -5.648406e+00 -5.010147e+00 -8.115321e+00 -3.380338e-01 -2.918662e+00 1.271270e+00 4.755076e+00 7.765684e+00 1.783759e+01 8.706718e-01 -8.182809e-01 -5.251278e-01 -5.839830e-01 1.832190e-01 -6.415290e-01 -1.102112e+00 -2.031223e+00 -7.007499e-01 6.551880e-02 1.551495e-01 1.726136e+00 2.297711e+00 2.152394e-02 3.270852e-01 1.273919e-01 2.681472e-01 1.264339e-01 6.419259e-02 4.829421e-02 2.027845e-01 3.230124e-01 1.395803e-01 -7.244478e-02 -2.580301e-01 -5.827098e-01 -6.132117e-03
<VARIANCE> 39
 9.698052e+00 2.294474e+01 1.518641e+01 1.248206e+01 2.299479e+01 1.858011e+01 3.212365e+01 2.106095e+01 1.221081e+01 2.514753e+01 3.474250e+01 2.834105e+01 6.243831e-03 3.459428e-01 2.106436e-01 6.857173e-01 1.133668e+00 1.201189e+00 6.090936e-01 1.055977e+00 6.412548e-01 6.927676e-01 7.737055e-01 1.826415e+00 2.913424e+00 1.703111e-04 4.593746e-02 3.639422e-02 9.388655e-02 1.573839e-01 1.282220e-01 1.793299e-01 2.286953e-01 1.379189e-01 2.728777e-01 3.117971e-01 2.450129e-01 1.814554e-01 1.344287e-05
<GCONST> 5.660950e+01
<MIXTURE> 3 2.899955e-02
<MEAN> 39
 -1.523177e+00 9.782657e+00 -7.050763e+00 -2.704498e+00 -8.927333e+00 -6.343356e+00 -1.119904e+00 -2.819009e+00 1.112535e-01 -8.268297e-02 5.755274e+00 1.253736e+01 8.691470e-01 -4.661421e-01 1.062425e-02 2.028199e-01 4.058775e-01 1.601978e-01 3.641300e-01 -6.884153e-01 -5.262104e-01 2.720531e-01 1.366698e+00 2.738941e+00 2.817350e+00 3.187808e-02 5.262331e-01 2.153480e-01 4.309723e-01 2.937570e-01 4.818692e-01 3.858969e-01 4.675515e-01 4.754537e-01 3.381737e-01 1.948502e-01 -4.615241e-01 -1.079271e+00 -1.554604e-02
<VARIANCE> 39
 1.975016e+01 3.076575e+01 1.489779e+01 1.146415e+01 1.986696e+01 2.463118e+01 1.915145e+01 2.250164e+01 3.335681e+01 2.049008e+01 2.473581e+01 5.913782e+01 4.717429e-03 5.276461e-01 3.250673e-01 6.302714e-01 7.584835e-01 1.285669e+00 9.280401e-01 1.033593e+00 1.128122e+00 1.892202e+00 4.177885e+00 3.219477e+00 3.721357e+00 2.341866e-04 9.618737e-02 9.215907e-02 1.719089e-01 1.259139e-01 2.948489e-01 1.803884e-01 2.100385e-01 3.284187e-01 2.702110e-01 3.765331e-01 3.611038e-01 5.392833e-01 1.225424e-04
<GCONST> 7.087067e+01
<MIXTURE> 4 5.490953e-02
<MEAN> 39
 -1.265720e+00 1.524232e+01 -3.532955e+00 -2.924785e+00 -5.115690e+00 -5.774181e+00 -4.462613e-01 1.077502e+00 -6.051801e+00 -2.453585e+00 -4.610586e+00 2.821285e+00 8.043436e-01 2.626719e-01 8.224531e-01 -8.099990e-02 1.167367e+00 -3.794352e-01 4.091225e-01 -9.895748e-01 -2.702101e-01 -5.427248e-01 3.133315e-01 -5.294406e-01 1.063860e+00 1.002530e-02 -4.130008e-02 -4.063334e-01 -5.709643e-02 -6.164104e-01 -2.760983e-02 -4.092122e-01 -1.477799e-01 -2.750603e-02 3.086922e-01 5.275904e-02 5.189398e-02 -4.804641e-01 3.252978e-03
<VARIANCE> 39
 6.586248e+00 2.008221e+01 1.253149e+01 2.324254e+01 2.187049e+01 1.535140e+01 2.497069e+01 2.890844e+01 1.979312e+01 1.553399e+01 1.544302e+01 1.441586e+01 4.976622e-03 2.906745e-01 8.331621e-01 6.492087e-01 1.446952e+00 1.169875e+00 2.173392e+00 1.509238e+00 1.073881e+00 2.434937e+00 1.914651e+00 2.031229e+00 1.755394e+00 1.610016e-04 3.953194e-02 1.708878e-01 1.509995e-01 3.064796e-01 3.160938e-01 3.338760e-01 2.736281e-01 1.975293e-01 4.699388e-01 4.635406e-01 2.276111e-01 3.077273e-01 1.442817e-05
<GCONST> 6.591142e+01
<MIXTURE> 5 4.242338e-02
<MEAN> 39
 -1.490342e+00 1.120229e+01 -7.020228e+00 -1.013823e+00 -9.059417e+00 -9.278728e+00 -6.231610e+00 -6.086739e+00 -5.853953e+00 -4.133691e+00 -7.440949e+00 3.224574e+00 8.772554e-01 -2.463223e-01 -1.391565e-01 -9.412836e-02 3.678575e-01 -2.536475e-01 -4.741537e-01 -8.724940e-01 -5.281384e-01 -3.175666e-01 -6.394224e-01 -3.631671e-01 -4.440675e-02 1.997918e-02 3.273217e-01 2.974790e-01 4.379162e-01 1.867791e-01 4.168125e-01 5.536193e-01 6.682987e-01 5.960695e-01 4.914925e-01 5.408121e-01 5.328097e-01 1.641996e-01 -6.957914e-03
<VARIANCE> 39
 1.061630e+01 1.876896e+01 8.105220e+00 5.213206e+00 1.103312e+01 1.130382e+01 1.461251e+01 1.979730e+01 1.435216e+01 1.641161e+01 1.490393e+01 1.579084e+01 6.085594e-03 2.798529e-01 2.465444e-01 3.571371e-01 3.849747e-01 5.023762e-01 6.597353e-01 7.248776e-01 8.046985e-01 6.449564e-01 1.018336e+00 9.351139e-01 1.027558e+00 1.137439e-04 3.274734e-02 5.217228e-02 4.409385e-02 5.222447e-02 6.615101e-02 6.214093e-02 1.306400e-01 1.535738e-01 9.573108e-02 1.256790e-01 2.102210e-01 1.690192e-01 1.987833e-05
<GCONST> 4.075466e+01
<MIXTURE> 6 3.821998e-02
<MEAN> 39
 -5.041606e-01 1.634775e+01 5.240173e-01 -3.783978e+00 -4.778304e+00 -5.017596e+00 -9.563810e+00 1.261230e+00 -1.250640e+00 -3.155512e+00 5.856189e+00 -3.946357e+00 8.074065e-01 -4.035729e-01 3.867921e-01 -1.408907e-01 3.255234e-01 4.712072e-02 1.782765e-01 -1.576479e-01 -4.556130e-02 -4.100733e-01 -3.824531e-01 -5.634947e-02 -3.676862e-01 1.300440e-02 6.806751e-02 -1.312716e-01 2.331259e-02 -6.132871e-02 4.704515e-02 2.263539e-03 2.693200e-02 -4.802216e-02 7.216188e-02 7.550084e-02 -8.116754e-02 1.563908e-01 -9.047067e-04
<VARIANCE> 39
 3.276802e+00 1.496825e+01 4.869532e+00 1.003614e+01 1.699565e+01 6.404732e+00 7.732745e+00 1.043891e+01 2.308728e+01 1.499125e+01 8.137276e+00 3.611862e+00 3.492882e-03 3.400284e-01 1.801946e-01 2.255474e-01 2.632059e-01 4.196931e-01 2.699231e-01 4.921456e-01 2.744117e-01 6.011183e-01 3.616911e-01 5.110034e-01 4.657648e-01 2.099922e-04 4.270128e-02 3.513853e-02 3.950015e-02 4.529506e-02 8.163060e-02 5.481727e-02 6.833716e-02 4.683403e-02 9.731067e-02 7.278625e-02 6.278758e-02 6.578466e-02 2.041683e-05
<GCONST> 2.566400e+01
<MIXTURE> 7 1.040336e-01
<MEAN> 39
 -1.918013e+00 1.361720e+01 1.925201e+00 -4.447230e+00 -3.263249e+00 -6.443055e+00 -7.845626e+00 -1.791397e-01 1.612496e+00 -3.985496e+00 5.258491e+00 -2.045011e-03 8.218213e-01 -1.505322e-01 1.368289e+00 -6.296696e-01 1.393902e+00 -8.721169e-01 8.787599e-02 -8.397678e-01 -4.082222e-01 -5.104972e-01 -1.073047e+00 7.714286e-01 -1.246347e+00 4.874465e-03 1.632858e-01 -5.609156e-01 1.778748e-01 -2.347678e-01 -2.401100e-01 4.749007e-01 1.660904e-01 2.660155e-01 -1.578934e-01 4.339565e-01 -4.529557e-01 -1.147246e-01 1.862370e-03
<VARIANCE> 39
 8.135972e+00 2.208803e+01 1.057733e+01 2.194524e+01 1.638818e+01 1.866211e+01 1.902962e+01 2.090607e+01 2.299113e+01 3.326007e+01 1.744964e+01 1.953081e+01 6.062952e-03 2.864621e-01 5.434747e-01 6.233134e-01 9.563537e-01 9.352904e-01 1.592124e+00 1.437910e+00 1.384253e+00 1.336108e+00 1.682147e+00 1.278160e+00 1.245663e+00 2.051131e-04 4.117406e-02 1.300827e-01 1.071346e-01 1.841674e-01 2.018188e-01 2.013223e-01 2.272193e-01 2.104638e-01 1.905937e-01 3.069327e-01 2.926475e-01 2.542928e-01 1.586309e-05
<GCONST> 6.099543e+01
<MIXTURE> 8 3.391483e-02
<MEAN> 39
 3.484646e-01 4.618885e+00 -3.079836e-01 -2.372463e+00 -1.600603e+00 -1.220852e+00 3.464911e+00 3.582605e+00 2.590436e+00 1.896652e+00 -5.675402e-01 1.343325e+00 8.450040e-01 -1.228589e+00 -2.477744e-01 -6.078938e-01 -3.139901e-01 -3.650573e-01 -9.947452e-01 -1.486548e+00 -1.230983e+00 -1.499542e+00 -1.233977e+00 -1.181271e+00 -2.440467e-01 4.858571e-02 -1.119830e-01 -4.763413e-01 6.256208e-02 1.559429e-01 7.347951e-02 1.803443e-02 -2.216944e-01 -1.717477e-01 1.707437e-02 1.838477e-01 3.208748e-01 -3.730890e-03 -1.608844e-02
<VARIANCE> 39
 1.009842e+01 5.589284e+00 1.579418e+01 6.783833e+00 7.064122e+00 1.358667e+01 1.046792e+01 1.318172e+01 1.192023e+01 2.227427e+01 1.946217e+01 2.527187e+01 6.124728e-03 7.053034e-01 4.682092e-01 4.661441e-01 5.392688e-01 9.479536e-01 1.031393e+00 1.242256e+00 1.280426e+00 1.793979e+00 1.386657e+00 1.119503e+00 1.066349e+00 3.462180e-04 1.668984e-01 2.093052e-01 1.052032e-01 1.042962e-01 1.971380e-01 1.252592e-01 1.637418e-01 1.277892e-01 2.229313e-01 2.896286e-01 1.514588e-01 2.707924e-01 1.720767e-04
<GCONST> 5.759689e+01
<MIXTURE> 9 5.115443e-02
<MEAN> 39
 -3.905979e+00 1.172193e+01 -6.369011e+00 -5.384933e+00 -1.061419e+01 -1.128450e+01 -5.679162e+00 -5.835039e+00 -7.550183e+00 -5.419251e+00 -7.441676e+00 -1.266598e+00 8.300681e-01 -1.659466e-01 -2.234499e-01 -2.975573e-01 3.263660e-01 -4.448930e-01 7.739613e-02 -7.796954e-01 -7.767598e-01 -6.882751e-01 -7.954020e-01 -5.966342e-01 -2.263654e-02 1.257161e-02 3.688807e-01 1.912085e-01 5.175638e-01 3.718510e-01 7.098092e-01 6.645291e-01 5.757174e-01 7.930664e-01 8.157945e-01 7.914652e-01 6.076459e-01 4.584269e-01 -1.559019e-03
<VARIANCE> 39
 8.148741e+00 2.461356e+01 1.669383e+01 1.554289e+01 9.519013e+00 1.851029e+01 3.652938e+01 2.608254e+01 3.092322e+01 1.752883e+01 2.163376e+01 3.878180e+01 8.074162e-03 3.309204e-01 6.692916e-01 5.892336e-01 1.799825e+00 1.189464e+00 1.187631e+00 1.635486e+00 1.411984e+00 1.354222e+00 1.761317e+00 2.588014e+00 2.492270e+00 2.010479e-04 6.704780e-02 1.837163e-01 1.667736e-01 3.366429e-01 1.359182e-01 3.258225e-01 2.279063e-01 2.084743e-01 1.573007e-01 2.535274e-01 2.881429e-01 4.309204e-01 5.840035e-05
<GCONST> 6.823502e+01
<MIXTURE> 10 3.821998e-02
<MEAN> 39
 -5.041606e-01 1.634775e+01 5.240173e-01 -3.783978e+00 -4.778304e+00 -5.017596e+00 -9.563810e+00 1.261230e+00 -1.250640e+00 -3.155512e+00 5.856189e+00 -3.946357e+00 8.074065e-01 -4.035729e-01 3.867921e-01 -1.408907e-01 3.255234e-01 4.712072e-02 1.782765e-01 -1.576479e-01 -4.556130e-02 -4.100733e-01 -3.824531e-01 -5.634947e-02 -3.676862e-01 1.300440e-02 6.806751e-02 -1.312716e-01 2.331259e-02 -6.132871e-02 4.704515e-02 2.263539e-03 2.693200e-02 -4.802216e-02 7.216188e-02 7.550084e-02 -8.116754e-02 1.563908e-01 -9.047067e-04
<VARIANCE> 39
 3.276802e+00 1.496825e+01 4.869532e+00 1.003614e+01 1.699565e+01 6.404732e+00 7.732745e+00 1.043891e+01 2.308728e+01 1.499125e+01 8.137276e+00 3.611862e+00 3.492882e-03 3.400284e-01 1.801946e-01 2.255474e-01 2.632059e-01 4.196931e-01 2.699231e-01 4.921456e-01 2.744117e-01 6.011183e-01 3.616911e-01 5.110034e-01 4.657648e-01 2.099922e-04 4.270128e-02 3.513853e-02 3.950015e-02 4.529506e-02 8.163060e-02 5.481727e-02 6.833716e-02 4.683403e-02 9.731067e-02 7.278625e-02 6.278758e-02 6.578466e-02 2.041683e-05
<GCONST> 2.566400e+01
<MIXTURE> 11 8.379826e-02
<MEAN> 39
 2.189816e-01 1.572213e+01 2.826934e-01 -7.679004e-01 -7.836801e+00 -1.647734e+00 -1.171075e+01 1.631895e+00 -1.819441e+00 -3.966359e+00 3.446374e+00 -4.129333e+00 7.678232e-01 -1.027399e+00 1.208402e+00 3.611203e-02 -3.921951e-01 -3.302126e-02 3.981520e-01 -4.778960e-01 5.006980e-01 1.338380e-01 -6.612530e-01 6.662819e-01 -2.633201e-01 3.519661e-02 1.654611e-02 -6.426700e-01 1.460184e-01 -1.004268e-02 1.570071e-01 -1.067772e-01 4.226044e-01 -2.415975e-01 1.047798e-01 1.339208e-01 -1.553331e-01 2.236036e-01 -1.002984e-02
<VARIANCE> 39
 8.527747e+00 4.171329e+01 1.422089e+01 1.669325e+01 2.164188e+01 1.523110e+01 3.016696e+01 1.817274e+01 2.300561e+01 2.035434e+01 1.539407e+01 1.086811e+01 7.033257e-03 6.419879e-01 1.271267e+00 1.030072e+00 1.365760e+00 1.241195e+00 1.128726e+00 1.569220e+00 2.753275e+00 1.295134e+00 1.483547e+00 1.067967e+00 1.151644e+00 5.097366e-04 1.585817e-01 2.187326e-01 2.630298e-01 3.280910e-01 2.971623e-01 1.855664e-01 2.983279e-01 3.302263e-01 3.081723e-01 2.284520e-01 2.069985e-01 2.282151e-01 1.992311e-04
<GCONST> 7.140075e+01
<MIXTURE> 12 3.869582e-02
<MEAN> 39
 3.380047e+00 1.591542e+01 -1.662087e+00 -1.615821e-02 -4.741477e+00 -3.971502e+00 2.281565e+00 2.437878e+00 9.909100e-01 4.936385e+00 -1.356634e+00 7.361468e+00 7.312184e-01 -4.302002e-01 4.261350e-02 -8.945973e-01 -4.573041e-01 -8.546187e-01 -6.477486e-01 -1.064627e+00 -1.055828e+00 -1.192206e+00 -1.507620e+00 -1.513065e+00 -8.277051e-01 3.863715e-02 -3.453574e-01 -5.751347e-01 -2.478737e-01 -1.111761e-01 -2.207851e-02 -2.110465e-01 -3.156798e-01 -3.168009e-01 -2.827136e-01 -4.842028e-01 -2.951010e-01 -4.556473e-01 -8.872718e-05
<VARIANCE> 39
 8.006987e+00 1.025474e+01 1.509988e+01 1.253465e+01 1.273716e+01 1.348032e+01 1.932745e+01 2.810610e+01 1.865496e+01 1.832738e+01 1.640911e+01 1.748623e+01 7.128042e-03 6.458771e-01 8.808669e-01 6.844743e-01 9.378421e-01 1.084923e+00 1.187168e+00 1.353904e+00 9.044213e-01 1.440696e+00 1.827594e+00 1.627679e+00 1.716820e+00 3.259175e-04 7.371222e-02 1.819266e-01 1.165539e-01 1.109571e-01 2.135531e-01 1.746357e-01 2.370270e-01 2.927459e-01 2.415837e-01 1.787001e-01 3.770967e-01 3.528635e-01 1.103625e-04
<GCONST> 6.384901e+01
<MIXTURE> 13 8.242465e-02
<MEAN> 39
 9.187630e-01 1.486829e+01 -1.833506e+00 -1.239073e+00 -3.281518e+00 -5.791150e+00 -1.045862e+01 2.974078e+00 -2.306817e+00 2.247774e+00 1.227405e+00 -3.492120e+00 7.842353e-01 -3.533272e-01 7.694415e-01 -2.210576e-01 1.463554e-01 -4.620824e-01 -3.146771e-01 -1.325287e+00 -7.908865e-01 -1.106698e+00 -5.278929e-02 -2.772267e-01 -1.410198e-01 2.312356e-02 -8.735038e-02 -2.287575e-01 7.965493e-02 -1.566880e-01 -4.232258e-02 6.248081e-02 4.387369e-01 -1.910161e-01 -7.270570e-02 -2.130972e-01 1.601043e-02 2.162993e-01 -6.621845e-04
<VARIANCE> 39
 1.246562e+01 2.163400e+01 3.286596e+01 1.734623e+01 1.476172e+01 1.711258e+01 3.160310e+01 3.188298e+01 3.458582e+01 1.946585e+01 3.064158e+01 1.641469e+01 5.768369e-03 4.823594e-01 1.096964e+00 6.403523e-01 1.046375e+00 9.572102e-01 1.742562e+00 1.093976e+00 2.256852e+00 1.282709e+00 1.767778e+00 1.833454e+00 1.191093e+00 2.305501e-04 6.711584e-02 8.096623e-02 1.268375e-01 2.042612e-01 1.621378e-01 1.039722e-01 1.566976e-01 2.858762e-01 2.980165e-01 2.399350e-01 2.976596e-01 2.296151e-01 1.745481e-05
<GCONST> 6.491405e+01
<MIXTURE> 14 3.869582e-02
<MEAN> 39
 3.380047e+00 1.591542e+01 -1.662087e+00 -1.615821e-02 -4.741477e+00 -3.971502e+00 2.281565e+00 2.437878e+00 9.909100e-01 4.936385e+00 -1.356634e+00 7.361468e+00 7.312184e-01 -4.302002e-01 4.261350e-02 -8.945973e-01 -4.573041e-01 -8.546187e-01 -6.477486e-01 -1.064627e+00 -1.055828e+00 -1.192206e+00 -1.507620e+00 -1.513065e+00 -8.277051e-01 3.863715e-02 -3.453574e-01 -5.751347e-01 -2.478737e-01 -1.111761e-01 -2.207851e-02 -2.110465e-01 -3.156798e-01 -3.168009e-01 -2.827136e-01 -4.842028e-01 -2.951010e-01 -4.556473e-01 -8.872718e-05
<VARIANCE> 39
 8.006987e+00 1.025474e+01 1.509988e+01 1.253465e+01 1.273716e+01 1.348032e+01 1.932745e+01 2.810610e+01 1.865496e+01 1.832738e+01 1.640911e+01 1.748623e+01 7.128042e-03 6.458771e-01 8.808669e-01 6.844743e-01 9.378421e-01 1.084923e+00 1.187168e+00 1.353904e+00 9.044213e-01 1.440696e+00 1.827594e+00 1.627679e+00 1.716820e+00 3.259175e-04 7.371222e-02 1.819266e-01 1.165539e-01 1.109571e-01 2.135531e-01 1.746357e-01 2.370270e-01 2.927459e-01 2.415837e-01 1.787001e-01 3.770967e-01 3.528635e-01 1.103625e-04
<GCONST> 6.384901e+01
<MIXTURE> 15 6.345501e-02
<MEAN> 39
 8.761562e-01 1.445382e+01 -5.060113e+00 -2.103750e+00 -6.983925e+00 -6.589762e+00 7.817614e-01 -2.161387e+00 -2.391695e+00 -2.010607e+00 -4.767013e+00 4.556065e+00 7.942901e-01 -9.486590e-01 -5.188694e-01 -6.998405e-01 -4.809655e-02 -5.404907e-01 -7.484345e-01 -9.852801e-01 -1.142815e+00 -1.554546e+00 -1.728123e+00 -1.561097e+00 -4.946995e-01 3.352878e-02 8.112427e-02 -1.187797e-01 3.024004e-01 2.533285e-01 3.340965e-01 1.630818e-01 1.883654e-02 2.553703e-01 3.651588e-01 3.693971e-01 3.734971e-01 1.043250e-01 -6.129052e-03
<VARIANCE> 39
 1.675423e+01 2.000834e+01 1.825857e+01 1.658954e+01 1.041382e+01 1.697256e+01 1.756594e+01 2.861090e+01 1.772329e+01 1.932461e+01 2.699529e+01 1.528759e+01 6.841005e-03 4.641817e-01 6.227103e-01 9.970421e-01 1.315547e+00 9.929658e-01 1.378518e+00 1.264054e+00 1.443830e+00 1.228070e+00 1.806099e+00 2.938796e+00 3.701914e+00 2.669324e-04 1.140505e-01 1.315743e-01 1.034499e-01 1.338224e-01 1.738676e-01 1.885673e-01 1.876414e-01 2.103047e-01 2.959813e-01 3.662728e-01 3.500772e-01 2.623354e-01 6.351484e-05
<GCONST> 6.697151e+01
<MIXTURE> 16 4.795003e-02
<MEAN> 39
 -1.570500e+00 1.293761e+01 -5.153722e+00 -2.427359e-01 -7.156844e+00 -6.914264e+00 -2.808158e+00 -1.433618e+00 -4.356728e+00 1.168883e+00 -6.906508e+00 5.573864e+00 8.514233e-01 -8.993295e-01 -9.344148e-01 -1.193206e+00 -5.772177e-01 -1.288575e+00 -1.496538e+00 -1.989159e+00 -2.143359e+00 -1.518692e+00 -1.559760e+00 -8.794165e-01 -3.753130e-01 2.755107e-02 2.213233e-01 -2.038554e-02 1.636447e-01 -4.309826e-02 8.620497e-02 1.082965e-01 2.333975e-01 1.290783e-01 1.316741e-01 4.743068e-02 2.159330e-01 7.141646e-02 -7.568345e-03
<VARIANCE> 39
 1.153673e+01 1.257371e+01 1.142418e+01 1.576888e+01 7.496270e+00 9.219863e+00 1.545749e+01 2.707654e+01 1.503159e+01 1.917303e+01 7.295245e+00 1.290029e+01 4.058795e-03 3.123282e-01 3.871700e-01 5.155563e-01 1.017761e+00 8.630613e-01 9.435276e-01 7.848730e-01 8.529786e-01 9.738453e-01 9.961342e-01 1.083604e+00 1.172805e+00 2.086864e-04 6.601213e-02 7.852959e-02 8.457120e-02 9.718604e-02 1.536275e-01 1.570236e-01 2.424356e-01 2.593135e-01 1.671093e-01 1.446599e-01 1.857698e-01 2.157623e-01 3.909517e-05
<GCONST> 5.154877e+01
<MIXTURE> 17 1.355547e-02
<MEAN> 39
 -5.309223e+00 7.300574e+00 -8.472041e+00 -5.278399e+00 -8.978970e+00 -5.164289e+00 2.688151e+00 5.925950e+00 1.519518e+01 1.824089e+01 1.443264e+01 9.020063e+00 9.041047e-01 -1.803354e-01 -2.395228e-01 -3.518141e-01 -5.800916e-01 -7.354329e-01 -4.125398e-01 4.120841e-01 2.256204e-01 1.138440e+00 6.987889e-01 -3.088624e-01 -1.460271e-01 1.218034e-02 4.815968e-01 3.542735e-01 3.580268e-01 4.894033e-01 3.506638e-01 3.584013e-01 2.146212e-01 -3.749606e-02 -6.209472e-01 -8.067092e-01 -5.220789e-01 -5.151156e-01 -4.315942e-03
<VARIANCE> 39
 2.870671e+01 2.167986e+01 3.204330e+01 2.201731e+01 1.276043e+01 1.103692e+01 1.783554e+01 3.975194e+01 3.774600e+01 1.174358e+01 5.602432e+01 9.988851e+01 3.148473e-03 2.536470e-01 1.007456e+00 1.049908e+00 1.415543e+00 1.481099e+00 6.230916e-01 7.582102e-01 5.681834e-01 2.238552e+00 1.223226e+00 1.728033e+00 1.938019e+00 9.993070e-05 7.342660e-02 1.290526e-01 1.232989e-01 1.682429e-01 3.136706e-01 2.199754e-01 1.747867e-01 4.377270e-01 4.435240e-01 3.551992e-01 4.916973e-01 6.472822e-01 2.355460e-05
<GCONST> 6.883106e+01
<MIXTURE> 18 8.462718e-02
<MEAN> 39
 1.028264e+00 9.724985e+00 -6.803114e-01 -1.176931e+00 -6.445949e+00 -4.787762e+00 -8.597454e+00 -2.129032e+00 -3.866614e+00 -1.610389e+00 4.125793e-01 -4.150710e+00 8.388160e-01 -4.879219e-02 1.242161e+00 2.944133e-01 6.790676e-01 -5.778370e-01 -2.141063e-01 -4.365062e-02 2.979967e-02 -5.400419e-01 1.739610e-01 8.480237e-02 4.801498e-01 -8.048327e-04 -4.870638e-02 -2.745488e-02 6.359147e-03 -2.749209e-01 1.956347e-01 1.328702e-02 2.677018e-01 1.606163e-01 4.135192e-01 -6.726553e-02 -5.481944e-02 1.500867e-01 1.662512e-03
<VARIANCE> 39
 1.110656e+01 3.031141e+01 3.057373e+01 2.425882e+01 2.245177e+01 3.052929e+01 3.121842e+01 3.183341e+01 2.952264e+01 3.223161e+01 5.512662e+01 3.814437e+01 4.397066e-03 3.810993e-01 4.799396e-01 1.776583e+00 1.361513e+00 1.458662e+00 1.533521e+00 1.830594e+00 2.356224e+00 1.836150e+00 2.418010e+00 1.490378e+00 1.430544e+00 6.183144e-05 3.055173e-02 9.879120e-02 2.264392e-01 2.014372e-01 3.331125e-01 4.901787e-01 3.732480e-01 4.846151e-01 3.056029e-01 3.562838e-01 3.534390e-01 3.788497e-01 7.326491e-06
<GCONST> 7.216196e+01
<MIXTURE> 19 3.921357e-02
<MEAN> 39
 -2.986197e-01 1.505826e+01 -4.171535e+00 1.447956e+00 -5.203379e+00 -3.577373e+00 7.566271e-01 -3.068182e+00 -1.344384e+00 -5.684958e+00 -5.906652e+00 7.309709e+00 7.901724e-01 -2.906976e-01 3.096651e-01 4.642745e-01 4.099781e-01 -1.126967e-01 -5.330324e-01 -6.186265e-01 2.427171e-01 4.239579e-01 -1.827244e-01 -5.880304e-02 6.870689e-01 2.713199e-02 4.651789e-02 -5.993540e-02 -4.848463e-02 -1.865381e-01 -1.853890e-01 -3.245018e-01 -2.205873e-01 9.078953e-03 1.527022e-01 3.611848e-01 1.664074e-01 -3.971124e-01 -2.258284e-03
<VARIANCE> 39
 1.443983e+01 2.217662e+01 1.283248e+01 1.061653e+01 1.207165e+01 2.618712e+01 1.329364e+01 2.375032e+01 7.521278e+00 1.788662e+01 3.041589e+01 2.127977e+01 5.664481e-03 5.129671e-01 4.639657e-01 2.712166e-01 7.352560e-01 8.003613e-01 1.552003e+00 7.736855e-01 1.644303e+00 1.569446e+00 9.738286e-01 1.173685e+00 1.151495e+00 1.558965e-04 7.159226e-02 8.964230e-02 1.242359e-01 1.252179e-01 1.105894e-01 2.222641e-01 1.248412e-01 2.949340e-01 3.262058e-01 2.428726e-01 4.786721e-01 3.226597e-01 2.577095e-05
<GCONST> 5.825231e+01
<MIXTURE> 20 9.606903e-02
<MEAN> 39
 7.584724e-01 1.254494e+01 -3.310895e+00 -3.797895e+00 -6.298759e+00 -5.364256e+00 -2.550600e+00 1.087006e+00 -1.392884e+00 7.322267e-01 -7.599968e-01 1.587377e+00 7.941257e-01 -9.763979e-01 3.628242e-01 -6.213402e-01 -5.709584e-01 -6.927556e-01 -8.842049e-01 -9.174711e-01 -9.613324e-01 -1.350814e+00 -1.224373e+00 -1.046231e+00 -6.974167e-01 6.932870e-02 -3.380745e-01 -1.046202e+00 4.493519e-01 7.474640e-01 7.836480e-01 8.158597e-01 3.025500e-01 2.168266e-01 3.844648e-01 1.801107e-01 2.265580e-01 4.882521e-02 -4.528828e-02
<VARIANCE> 39
 1.236406e+01 5.377530e+01 2.149150e+01 1.913088e+01 2.092248e+01 2.862408e+01 4.179786e+01 2.844342e+01 2.599426e+01 3.281064e+01 3.228301e+01 5.060489e+01 1.046235e-02 8.859408e-01 1.124894e+00 9.526281e-01 1.859541e+00 1.662028e+00 1.513837e+00 2.186870e+00 3.052866e+00 2.305722e+00 1.969556e+00 4.202988e+00 4.061453e+00 9.470776e-04 1.560067e-01 3.788346e-01 3.375380e-01 2.176215e-01 2.975819e-01 4.448121e-01 5.724856e-01 4.064593e-01 3.482923e-01 4.159059e-01 4.630218e-01 7.218739e-01 3.099219e-04
<GCONST> 8.801003e+01
<STATE> 4
<NUMMIXES> 20
<MIXTURE> 1 3.938131e-02
<MEAN> 39
 -1.324183e+00 1.109975e+01 -6.181331e+00 -2.695628e+00 -5.858825e+00 -4.993912e+00 -2.045300e-02 -1.022817e+00 4.433594e+00 7.122436e+00 1.000212e+01 1.229564e+01 9.195930e-01 4.183664e-01 5.883480e-01 6.382778e-01 8.669480e-01 5.065455e-01 3.386168e-01 7.566133e-02 5.177481e-01 5.746780e-01 5.697137e-01 6.902053e-01 6.159995e-01 1.227705e-02 1.534619e-01 1.146697e-02 5.076937e-02 1.573317e-02 -6.486682e-03 -3.720738e-02 1.187558e-01 2.176097e-01 4.836804e-02 -2.478535e-01 -4.721332e-01 -4.867521e-01 -4.843054e-03
<VARIANCE> 39
 2.194729e+01 3.139472e+01 2.789573e+01 1.364772e+01 3.109370e+01 2.340692e+01 2.634885e+01 2.344564e+01 6.343798e+01 5.678860e+01 4.198285e+01 5.013583e+01 3.400795e-03 3.170255e-01 4.478573e-01 5.000052e-01 5.183420e-01 1.073187e+00 1.184093e+00 1.358319e+00 1.118794e+00 1.170924e+00 2.410694e+00 2.760055e+00 2.723052e+00 8.361103e-05 4.141786e-02 7.695764e-02 1.369625e-01 1.975817e-01 2.156468e-01 1.357169e-01 2.759562e-01 1.214811e-01 3.161862e-01 2.567064e-01 4.385477e-01 2.768796e-01 1.909613e-05
<GCONST> 6.657877e+01
<MIXTURE> 2 8.182316e-02
<MEAN> 39
 -1.407568e+00 9.490561e+00 -2.340705e+00 -4.868431e+00 -4.373403e+00 -4.551118e+00 -5.665788e+00 -6.006679e-01 -2.952830e+00 -1.398364e+00 1.558977e+00 -2.531906e+00 8.673800e-01 -7.831944e-01 -8.836966e-02 4.547698e-02 2.191349e-01 5.977387e-02 -2.973349e-01 -1.838749e-01 -8.674283e-01 -8.070882e-01 -5.696877e-01 -2.302569e-01 -3.716617e-01 3.489283e-02 1.779934e-01 -2.271230e-01 2.528678e-01 4.721083e-01 3.332422e-01 3.583964e-01 4.149854e-01 3.495261e-01 4.787635e-01 4.092551e-01 1.458242e-01 4.268386e-01 -1.956702e-02
<VARIANCE> 39
 7.419466e+00 4.375657e+01 2.091379e+01 1.606161e+01 2.326971e+01 3.587405e+01 2.746250e+01 3.370990e+01 3.594022e+01 2.994117e+01 4.229173e+01 3.055277e+01 8.860622e-03 5.994117e-01 6.234205e-01 9.998009e-01 1.307007e+00 1.401350e+00 1.238539e+00 1.750345e+00 2.470749e+00 2.565274e+00 1.534308e+00 2.750974e+00 2.931410e+00 3.790383e-04 1.260547e-01 1.902301e-01 2.024985e-01 1.612555e-01 3.166006e-01 3.188425e-01 2.392386e-01 4.231727e-01 3.522583e-01 2.857226e-01 5.371008e-01 3.335897e-01 2.272635e-04
<GCONST> 7.899144e+01
<MIXTURE> 3 9.877942e-02
<MEAN> 39
 7.123509e-01 1.436423e+01 -2.224997e+00 -4.708740e-01 -8.490702e+00 -9.235213e+00 -5.571309e+00 -2.837047e-01 -2.091610e+00 -2.479402e+00 -4.872256e+00 -2.036222e+00 8.308305e-01 7.414550e-02 7.603656e-01 -1.268371e-01 1.276612e-01 -1.192095e-01 3.727706e-02 -8.470073e-02 -2.967434e-01 2.037362e-01 -9.509034e-02 -1.280425e-01 -3.073048e-02 6.545276e-03 3.336012e-02 -1.984875e-01 -1.530336e-01 -1.655546e-01 2.584719e-01 3.689368e-01 1.052612e-01 -4.079692e-02 4.067073e-03 6.634712e-02 2.029343e-01 1.098622e-01 -1.408247e-03
<VARIANCE> 39
 1.181494e+01 2.195836e+01 3.547241e+01 2.192116e+01 2.003863e+01 1.952496e+01 3.675290e+01 3.364016e+01 2.720971e+01 3.939294e+01 4.171335e+01 3.330714e+01 7.098597e-03 1.914505e-01 6.821257e-01 9.380221e-01 9.945715e-01 1.496417e+00 1.590328e+00 1.625883e+00 1.371714e+00 1.493637e+00 2.170559e+00 1.495820e+00 1.857223e+00 8.319684e-05 2.698311e-02 8.331287e-02 1.679283e-01 1.431411e-01 2.273532e-01 1.762423e-01 2.921416e-01 3.573661e-01 2.549731e-01 2.783775e-01 2.492920e-01 1.889973e-01 1.572021e-05
<GCONST> 6.655125e+01
<MIXTURE> 4 3.277586e-02
<MEAN> 39
 3.243737e-01 7.832182e+00 -1.437688e+00 -2.510767e+00 -3.357603e+00 -3.766192e+00 -6.895728e+00 3.444807e+00 -9.478791e+00 3.855795e+00 -3.426439e+00 5.281759e+00 9.401790e-01 1.023909e-01 3.356534e-03 4.803621e-02 2.744099e-02 8.504795e-02 -3.627550e-02 1.219982e-01 -6.397594e-02 2.857110e-02 -4.921728e-02 -5.939776e-02 3.808928e-02 -1.056290e-03 6.030682e-04 -9.434682e-03 -7.716747e-04 -7.494012e-03 1.362904e-02 -1.800181e-02 1.744009e-02 2.828837e-02 5.562340e-02 -4.941655e-02 -8.174269e-03 -7.695664e-02 -1.035227e-03
<VARIANCE> 39
 7.105218e+00 1.411163e+01 1.262443e+00 4.924510e+00 3.319018e+00 4.771744e+00 3.386089e+00 4.378064e+00 2.301279e+01 7.318630e+00 4.551825e+00 9.202243e+00 2.911867e-03 2.443647e-02 4.075616e-02 7.588232e-02 1.129136e-01 1.015156e-01 7.728082e-02 1.827670e-01 1.892437e-01 2.207107e-01 2.939976e-01 1.778679e-01 1.917590e-01 3.754082e-05 4.164538e-03 1.029936e-02 1.185955e-02 2.571173e-02 1.997411e-02 1.192756e-02 2.581101e-02 3.478501e-02 4.047745e-02 4.659157e-02 3.476538e-02 3.700840e-02 3.730628e-06
<GCONST> -8.531621e+00
<MIXTURE> 5 8.333033e-02
<MEAN> 39
 -1.998889e+00 1.190243e+01 -5.370199e+00 -2.208161e+00 -8.439326e+00 -7.930014e+00 -4.826505e+00 -4.635140e+00 -6.065660e+00 -3.742931e+00 -6.739520e+00 1.427586e+00 8.829348e-01 3.853648e-01 3.674176e-01 5.971925e-01 8.367751e-01 6.336715e-01 7.042047e-01 5.001054e-01 6.187990e-01 4.777837e-01 4.765968e-01 5.272912e-01 4.490812e-01 1.078879e-02 1.556337e-01 1.401216e-01 2.046629e-01 1.087092e-01 2.796326e-01 1.669153e-01 3.612336e-01 4.112265e-01 3.884328e-01 4.364811e-01 3.748306e-01 1.755648e-01 -3.721891e-03
<VARIANCE> 39
 1.100965e+01 2.358002e+01 1.122862e+01 1.615787e+01 1.082656e+01 1.617772e+01 1.700146e+01 2.608558e+01 1.974777e+01 2.094435e+01 2.761433e+01 3.982621e+01 5.826699e-03 2.880449e-01 3.560351e-01 3.375794e-01 5.962356e-01 6.791353e-01 1.028027e+00 1.015458e+00 8.065232e-01 7.304830e-01 1.147855e+00 1.226195e+00 1.131897e+00 8.295946e-05 5.135699e-02 5.706465e-02 8.161978e-02 1.294527e-01 1.120295e-01 1.492695e-01 1.488951e-01 1.506807e-01 1.500979e-01 1.501554e-01 2.763695e-01 2.366122e-01 1.655304e-05
<GCONST> 5.209555e+01
<MIXTURE> 6 3.754827e-02
<MEAN> 39
 -4.076104e+00 1.103155e+01 -1.643487e+00 -2.704948e+00 -1.500303e+00 -6.255981e+00 5.209274e-01 -1.314711e+00 2.397065e+00 4.102970e+00 7.973410e+00 9.314833e+00 9.466063e-01 1.370169e-02 2.639470e-02 -2.326234e-02 1.133725e-04 2.578998e-03 2.749474e-02 7.200247e-02 2.977316e-02 -1.484037e-02 3.683083e-02 3.131266e-02 -4.380251e-02 -8.188076e-04 1.515547e-02 -1.233824e-02 -5.396386e-03 -6.458123e-03 5.442099e-03 -2.402271e-02 -2.669657e-02 1.290210e-02 -3.620320e-03 1.115952e-02 -1.166459e-04 -1.047409e-02 -5.047492e-04
<VARIANCE> 39
 2.981668e+00 3.117289e+00 4.118764e+00 4.306031e+00 7.472636e+00 1.622319e+01 5.478869e+00 3.847782e+00 1.309090e+01 2.589556e+01 3.016631e+01 2.357626e+01 9.276864e-04 3.950656e-02 1.494535e-01 1.150484e-01 1.441705e-01 1.537912e-01 1.050441e-01 1.082710e-01 1.501251e-01 6.093038e-02 9.909628e-02 1.030020e-01 1.806558e-01 3.754082e-05 4.305624e-03 1.787897e-02 1.852271e-02 1.642346e-02 1.942299e-02 1.429987e-02 1.784945e-02 1.832029e-02 1.059276e-02 1.560226e-02 1.324031e-02 2.414466e-02 3.730628e-06
<GCONST> -9.760799e+00
<MIXTURE> 7 5.603718e-02
<MEAN> 39
 -1.241730e+00 1.736448e+01 -5.498297e-01 -9.387791e-01 -2.371306e+00 -5.238944e+00 -1.033964e+01 2.581556e+00 -3.746541e+00 -6.296812e-01 2.993851e+00 -2.517834e+00 7.949787e-01 -2.422624e-02 1.638812e-02 -1.386165e-01 -2.063292e-01 8.547559e-02 -1.653485e-03 1.181486e-01 -2.485432e-01 -5.872401e-03 -1.310934e-01 5.298631e-02 1.564209e-01 9.974398e-04 1.886185e-02 -1.369024e-02 -3.759947e-03 -9.665535e-03 1.588243e-02 -5.867889e-03 3.864604e-03 7.908580e-03 1.375865e-02 1.366051e-02 2.416825e-02 -7.898088e-03 -1.172019e-03
<VARIANCE> 39
 1.450027e+00 6.863687e+00 1.059211e+00 5.897624e+00 2.192674e+00 3.373240e+00 1.020873e+01 7.892599e+00 2.193293e+01 9.837831e+00 5.780695e+00 4.801451e+00 2.033181e-03 5.490453e-02 5.620839e-02 1.024467e-01 9.564216e-02 6.790517e-02 1.367289e-01 1.086622e-01 1.490602e-01 1.626994e-01 1.652743e-01 1.904968e-01 1.105051e-01 3.754082e-05 8.256089e-03 1.560039e-02 1.722640e-02 1.953181e-02 1.742945e-02 2.494580e-02 1.793699e-02 3.009927e-02 3.156528e-02 2.714259e-02 2.463092e-02 2.225059e-02 3.730628e-06
<GCONST> -1.146834e+01
<MIXTURE> 8 2.059808e-02
<MEAN> 39
 -5.474108e+00 7.982735e+00 -2.811051e+00 -1.540728e+00 -4.701204e+00 -3.481013e+00 -3.307006e+00 -2.009948e-01 -3.467148e+00 1.230029e+00 6.152861e-01 1.091146e+01 9.516813e-01 -2.177523e-01 -4.786827e-01 -4.629685e-01 -3.551977e-01 -3.148841e-01 -6.742013e-01 -6.783214e-01 -4.988411e-01 -4.757414e-02 -3.385139e-01 -5.681007e-02 -3.052816e-01 2.241387e-03 4.291011e-02 6.422614e-02 7.663286e-02 3.583611e-02 3.061778e-02 4.603025e-02 1.426279e-01 8.355717e-02 1.186182e-01 1.113889e-01 2.907179e-03 -2.800178e-02 -1.326511e-03
<VARIANCE> 39
 1.608676e+01 8.627810e+00 5.250937e+00 1.155194e+01 9.997425e+00 5.855879e+00 1.493290e+01 8.120755e+00 1.539008e+01 2.274121e+01 4.832670e+01 4.943882e+01 2.301037e-03 5.509602e-02 9.782051e-02 1.504953e-01 2.818495e-01 3.311328e-01 2.140636e-01 2.646522e-01 1.897281e-01 2.317199e-01 1.239784e-01 3.275769e-01 2.066868e-01 3.754082e-05 1.009448e-02 2.188773e-02 2.721080e-02 2.789450e-02 6.493349e-02 3.370436e-02 7.826777e-02 4.754966e-02 1.928469e-02 3.718778e-02 4.266777e-02 3.386538e-02 3.730628e-06
<GCONST> 1.309319e+01
<MIXTURE> 9 9.209754e-02
<MEAN> 39
 -1.948598e-01 1.379110e+01 -2.535384e+00 -2.088866e+00 -4.181534e+00 -6.078263e+00 -6.629188e+00 2.941821e+00 -7.535780e+00 2.318978e+00 -3.570760e+00 2.724856e+00 8.688235e-01 -7.001009e-02 1.600255e-01 8.361232e-02 3.598988e-01 1.405174e-01 -2.966904e-02 -1.215676e-01 -1.624628e-01 -1.372836e-01 -1.263383e-01 -4.611964e-01 6.800725e-02 1.515594e-02 1.083335e-01 -8.252615e-02 3.569119e-02 -4.077062e-02 -3.205385e-02 8.961387e-04 1.487132e-01 9.249068e-02 2.181377e-01 -2.756902e-02 1.530167e-01 -1.097383e-01 -5.216429e-03
<VARIANCE> 39
 6.553903e+00 3.360551e+01 5.580932e+00 1.156120e+01 1.085940e+01 1.399537e+01 2.238359e+01 1.899891e+01 2.005880e+01 1.349640e+01 2.079888e+01 2.080444e+01 3.646098e-03 1.921028e-01 3.598740e-01 3.696189e-01 3.983407e-01 4.983160e-01 4.013085e-01 7.721699e-01 8.153772e-01 5.719647e-01 6.654683e-01 9.485335e-01 8.244598e-01 7.650894e-05 4.024044e-02 5.609638e-02 5.430566e-02 6.400140e-02 9.376892e-02 5.741701e-02 1.248791e-01 1.567682e-01 9.791436e-02 1.029432e-01 1.345670e-01 1.111153e-01 1.348895e-05
<GCONST> 4.009589e+01
<MIXTURE> 10 1.034600e-01
<MEAN> 39
 -2.938049e+00 1.865402e+01 5.590832e-01 -3.306828e+00 -4.200624e+00 -5.215396e+00 -9.192501e+00 -1.387353e+00 7.094383e-01 -6.281885e+00 7.320646e+00 -4.260474e+00 8.876352e-01 -3.446461e-03 4.596910e-02 -8.961947e-03 -6.701657e-02 4.825645e-02 -2.736976e-02 2.571575e-02 -3.430744e-03 1.861740e-02 6.747454e-02 -4.133898e-02 2.878148e-02 1.727233e-03 1.239253e-02 -3.538033e-02 2.349913e-02 -2.070687e-02 -9.453886e-03 -4.506230e-03 3.205562e-03 2.034120e-02 9.330737e-03 3.329690e-02 -2.341807e-02 3.746988e-02 -1.107989e-03
<VARIANCE> 39
 4.411779e+00 1.424981e+01 7.554659e+00 4.579484e+00 7.690267e+00 1.572525e+01 1.044122e+01 1.108121e+01 8.540144e+00 8.351900e+00 6.558931e+00 5.988618e+00 2.780421e-03 4.095621e-02 8.219326e-02 8.692283e-02 1.247530e-01 1.611189e-01 1.492294e-01 1.084069e-01 1.927895e-01 1.941035e-01 1.893220e-01 1.164287e-01 9.102596e-02 3.754082e-05 7.926060e-03 1.651174e-02 1.228434e-02 1.751343e-02 2.724124e-02 2.349285e-02 2.786162e-02 3.071007e-02 3.287449e-02 3.369342e-02 2.060022e-02 1.587655e-02 3.730628e-06
<GCONST> -4.026882e+00
<MIXTURE> 11 5.306699e-02
<MEAN> 39
 -8.393130e-02 1.422892e+01 -4.144344e+00 -2.394033e+00 -3.123801e+00 -1.019791e+01 -1.038767e+00 -1.331991e-01 -2.406386e+00 -9.045256e-01 -5.531416e+00 2.521364e+00 8.247952e-01 1.163983e-02 -2.272259e-02 -9.526925e-02 -1.269735e-01 3.670307e-02 -1.417763e-02 1.603487e-01 -9.242059e-02 3.285441e-03 -8.582441e-02 5.347852e-03 3.211686e-02 6.327109e-04 4.297016e-03 -3.027347e-02 -3.183969e-02 -3.179761e-02 -3.258017e-02 -4.702039e-02 -3.159830e-02 -4.512675e-02 -1.665584e-03 3.055664e-03 -1.719650e-02 -3.953407e-02 -9.033109e-04
<VARIANCE> 39
 7.775327e-01 2.971556e+00 1.399440e+01 1.219363e+01 1.704766e+01 1.297943e+01 1.123294e+01 2.555241e+01 1.553780e+01 2.589639e+01 6.194324e+00 5.958673e+00 2.852682e-03 2.909361e-02 6.264982e-02 6.961067e-02 1.358482e-01 1.213807e-01 1.638174e-01 1.936796e-01 1.479750e-01 1.364117e-01 1.491805e-01 1.546355e-01 1.791602e-01 3.754082e-05 4.467955e-03 8.042275e-03 1.006491e-02 1.617658e-02 1.768456e-02 2.857348e-02 2.633789e-02 2.451239e-02 2.485723e-02 2.033440e-02 1.937209e-02 3.149873e-02 3.730628e-06
<GCONST> -5.033074e+00
<MIXTURE> 12 1.573541e-02
<MEAN> 39
 -2.094129e+00 1.077919e+01 -1.463627e+00 6.592993e-01 -3.660621e+00 -4.397696e+00 -1.362725e+00 -3.369811e+00 -1.517428e+00 -1.564621e+00 1.953379e+00 8.686167e+00 8.871406e-01 -5.194824e-02 -3.320688e-02 -8.618890e-02 1.448557e-01 -1.576465e-01 -1.110751e-01 -1.084959e-01 -5.500158e-02 5.863406e-02 9.454833e-02 6.233682e-02 1.073372e-01 8.818799e-03 -6.667400e-02 -5.642479e-02 -1.270421e-01 -1.682412e-01 -1.197121e-01 -8.171771e-02 -5.285268e-02 -6.238759e-02 -6.454267e-02 -7.878842e-03 -1.938531e-01 -2.921850e-01 -2.320224e-03
<VARIANCE> 39
 1.124672e+01 1.063764e+01 9.026834e+00 9.930032e+00 2.343957e+01 5.220087e+01 1.549376e+01 2.590003e+01 1.166560e+01 2.960322e+01 3.945915e+01 4.241642e+01 3.843334e-03 9.968194e-02 2.047642e-01 1.598453e-01 3.027597e-01 4.305780e-01 3.373607e-01 2.240953e-01 2.441602e-01 4.806304e-01 4.324855e-01 6.053994e-01 7.271778e-01 3.754082e-05 1.893927e-02 3.270565e-02 2.736648e-02 5.523099e-02 7.721259e-02 7.677849e-02 6.559792e-02 6.098050e-02 1.434670e-01 9.320610e-02 1.166062e-01 7.620942e-02 3.730628e-06
<GCONST> 3.136373e+01
<MIXTURE> 13 2.647316e-02
<MEAN> 39
 -8.998552e+00 9.259869e+00 4.173404e+00 -8.839586e-01 -7.660469e+00 -2.408964e+00 -5.390450e+00 4.454147e-01 1.417248e+00 -9.640792e+00 3.062821e+00 -1.481671e+00 9.826885e-01 -3.427140e-02 6.770251e-02 -1.067130e-01 8.063110e-02 8.978801e-02 -9.307043e-02 -1.300722e-01 7.419151e-02 -6.948265e-02 2.462227e-01 -2.460189e-02 -6.994045e-02 -2.181810e-03 3.179909e-02 -2.918492e-03 3.171947e-03 -3.285640e-03 5.277207e-02 1.803172e-02 4.788387e-02 -1.577392e-03 -2.790147e-02 4.955502e-02 -3.331928e-02 4.641595e-02 -1.742171e-03
<VARIANCE> 39
 3.413022e+00 5.252683e+00 5.431098e+00 1.225083e+01 1.051627e+00 2.905224e+00 1.280278e+01 2.657803e+01 1.027141e+01 7.310089e+00 6.347185e+00 1.272697e+01 8.178985e-04 1.020644e-01 1.069562e-01 9.730589e-02 4.663591e-02 1.624842e-01 1.314262e-01 1.720726e-01 1.787448e-01 2.584575e-01 1.423795e-01 1.109273e-01 2.672241e-01 3.754082e-05 1.623748e-02 2.421119e-02 1.838223e-02 7.902563e-03 2.633245e-02 1.910315e-02 1.621866e-02 3.152946e-02 5.295633e-02 3.084440e-02 1.161222e-02 5.140278e-02 3.730628e-06
<GCONST> -5.133728e+00
<MIXTURE> 14 1.573541e-02
<MEAN> 39
 -2.094129e+00 1.077919e+01 -1.463627e+00 6.592993e-01 -3.660621e+00 -4.397696e+00 -1.362725e+00 -3.369811e+00 -1.517428e+00 -1.564621e+00 1.953379e+00 8.686167e+00 8.871406e-01 -5.194824e-02 -3.320688e-02 -8.618890e-02 1.448557e-01 -1.576465e-01 -1.110751e-01 -1.084959e-01 -5.500158e-02 5.863406e-02 9.454833e-02 6.233682e-02 1.073372e-01 8.818799e-03 -6.667400e-02 -5.642479e-02 -1.270421e-01 -1.682412e-01 -1.197121e-01 -8.171771e-02 -5.285268e-02 -6.238759e-02 -6.454267e-02 -7.878842e-03 -1.938531e-01 -2.921850e-01 -2.320224e-03
<VARIANCE> 39
 1.124672e+01 1.063764e+01 9.026834e+00 9.930032e+00 2.343957e+01 5.220087e+01 1.549376e+01 2.590003e+01 1.166560e+01 2.960322e+01 3.945915e+01 4.241642e+01 3.843334e-03 9.968194e-02 2.047642e-01 1.598453e-01 3.027597e-01 4.305780e-01 3.373607e-01 2.240953e-01 2.441602e-01 4.806304e-01 4.324855e-01 6.053994e-01 7.271778e-01 3.754082e-05 1.893927e-02 3.270565e-02 2.736648e-02 5.523099e-02 7.721259e-02 7.677849e-02 6.559792e-02 6.098050e-02 1.434670e-01 9.320610e-02 1.166062e-01 7.620942e-02 3.730628e-06
<GCONST> 3.136373e+01
<MIXTURE> 15 1.573541e-02
<MEAN> 39
 -2.094129e+00 1.077919e+01 -1.463627e+00 6.592993e-01 -3.660621e+00 -4.397696e+00 -1.362725e+00 -3.369811e+00 -1.517428e+00 -1.564621e+00 1.953379e+00 8.686167e+00 8.871406e-01 -5.194824e-02 -3.320688e-02 -8.618890e-02 1.448557e-01 -1.576465e-01 -1.110751e-01 -1.084959e-01 -5.500158e-02 5.863406e-02 9.454833e-02 6.233682e-02 1.073372e-01 8.818799e-03 -6.667400e-02 -5.642479e-02 -1.270421e-01 -1.682412e-01 -1.197121e-01 -8.171771e-02 -5.285268e-02 -6.238759e-02 -6.454267e-02 -7.878842e-03 -1.938531e-01 -2.921850e-01 -2.320224e-03
<VARIANCE> 39
 1.124672e+01 1.063764e+01 9.026834e+00 9.930032e+00 2.343957e+01 5.220087e+01 1.549376e+01 2.590003e+01 1.166560e+01 2.960322e+01 3.945915e+01 4.241642e+01 3.843334e-03 9.968194e-02 2.047642e-01 1.598453e-01 3.027597e-01 4.305780e-01 3.373607e-01 2.240953e-01 2.441602e-01 4.806304e-01 4.324855e-01 6.053994e-01 7.271778e-01 3.754082e-05 1.893927e-02 3.270565e-02 2.736648e-02 5.523099e-02 7.721259e-02 7.677849e-02 6.559792e-02 6.098050e-02 1.434670e-01 9.320610e-02 1.166062e-01 7.620942e-02 3.730628e-06
<GCONST> 3.136373e+01
<MIXTURE> 16 3.433553e-02
<MEAN> 39
 -1.764070e+00 1.549652e+01 -4.005710e+00 -1.688158e-01 -7.224098e+00 -7.904030e+00 -2.353049e+00 -1.910276e+00 -1.609144e+00 -3.598874e+00 -7.440082e+00 5.235273e+00 8.665727e-01 -3.192793e-01 -6.068222e-01 -5.862800e-01 -5.460547e-01 -1.117709e+00 -1.390104e+00 -1.333218e+00 -9.280652e-01 -5.436135e-01 -3.705567e-01 -7.828010e-01 -1.147370e+00 1.585943e-02 8.393709e-02 -8.245683e-02 -7.826574e-02 -1.660823e-01 6.787439e-02 1.208022e-01 7.725378e-02 -4.360596e-02 -1.112591e-01 2.335084e-02 1.129387e-01 -1.621594e-01 -4.254680e-03
<VARIANCE> 39
 1.255382e+01 3.437098e+01 7.106147e+00 1.678843e+01 1.176445e+01 1.822104e+01 1.003535e+01 1.137467e+01 1.244654e+01 2.306629e+01 1.590960e+01 1.284114e+01 4.118594e-03 8.513815e-02 2.257870e-01 1.762254e-01 5.619355e-01 4.765064e-01 8.294154e-01 4.342338e-01 8.787294e-01 6.228639e-01 9.162378e-01 1.121398e+00 8.583515e-01 6.906591e-05 2.846257e-02 4.779834e-02 4.124629e-02 1.377166e-01 1.186977e-01 1.764003e-01 8.965967e-02 1.549874e-01 1.045610e-01 1.381076e-01 1.443716e-01 1.730652e-01 1.315232e-05
<GCONST> 4.070406e+01
<MIXTURE> 17 1.247108e-01
<MEAN> 39
 -3.053856e+00 1.620779e+01 8.093261e-01 -1.924868e+00 -6.527260e+00 -2.599703e+00 -1.075267e+01 -1.397753e+00 -5.107820e-02 -7.520894e+00 5.842340e+00 -3.912605e+00 8.559731e-01 -1.156849e-01 2.799069e-01 -7.872946e-02 1.166830e-01 -2.615756e-02 1.626977e-01 -7.499676e-02 -2.516954e-02 -6.156944e-02 -3.050061e-01 2.554065e-01 -2.164055e-01 1.328921e-02 1.746148e-01 -2.383251e-01 7.801206e-02 -8.832450e-02 1.560884e-01 -1.128595e-01 1.030634e-01 5.597176e-02 1.383890e-01 2.904920e-01 -2.143163e-01 7.802680e-02 -3.680796e-03
<VARIANCE> 39
 9.206783e+00 2.131384e+01 1.649045e+01 1.162322e+01 1.717359e+01 2.300079e+01 2.325695e+01 2.719806e+01 2.757242e+01 3.572777e+01 1.421471e+01 1.264776e+01 4.349741e-03 3.135013e-01 3.456862e-01 4.413036e-01 5.435843e-01 7.810745e-01 8.144788e-01 6.135424e-01 1.206418e+00 1.097377e+00 7.846270e-01 8.791426e-01 9.562765e-01 9.230089e-05 7.510162e-02 7.476694e-02 9.692361e-02 1.433018e-01 1.433017e-01 1.479120e-01 1.405680e-01 2.414956e-01 1.848760e-01 1.336737e-01 1.092312e-01 1.475752e-01 1.721569e-05
<GCONST> 5.177765e+01
<MIXTURE> 18 1.558477e-02
<MEAN> 39
 -2.833887e+00 8.624761e+00 -2.353887e+00 1.381554e+00 -3.236777e+00 -3.941229e+00 -3.130784e+00 -1.496440e+00 -3.366200e+00 3.373556e+00 1.948510e+00 1.151018e+01 9.627903e-01 2.948710e-01 5.249485e-01 5.486449e-01 6.136036e-01 9.195554e-01 4.453914e-01 6.741439e-01 5.702958e-01 5.241194e-01 4.116973e-01 1.672539e-01 3.346958e-01 2.208058e-03 -6.065956e-02 -5.197975e-02 -7.699937e-02 -1.728085e-01 -1.703669e-01 -1.696306e-01 1.735905e-02 -5.179050e-02 -4.274397e-02 -1.600363e-01 -1.233932e-01 -7.933484e-02 -1.496891e-03
<VARIANCE> 39
 1.058339e+01 5.005616e+00 3.582428e+00 1.063659e+01 3.187943e+00 1.222364e+01 8.909515e+00 7.069026e+00 3.075898e+01 9.970508e+00 5.548177e+01 1.177837e+01 8.897412e-04 8.577606e-02 5.842280e-02 1.630789e-01 4.359006e-01 2.830159e-01 3.491725e-01 1.452702e-01 2.203625e-01 3.165058e-01 1.469165e-01 3.416405e-01 1.727239e-01 3.754082e-05 1.454294e-02 1.775805e-02 2.080250e-02 4.232120e-02 3.903855e-02 4.962124e-02 4.370369e-02 3.515089e-02 5.253753e-02 2.094554e-02 5.541250e-02 3.895832e-02 3.730628e-06
<GCONST> 9.021175e+00
<MIXTURE> 19 2.694001e-02
<MEAN> 39
 1.874632e+00 1.244377e+01 -2.711616e+00 5.307488e+00 -4.003906e+00 -2.029556e+00 -8.187541e+00 4.403113e+00 -5.400910e+00 5.742455e-01 -3.100402e+00 -1.125279e+00 8.924550e-01 3.192740e-02 2.854076e-01 1.617773e-01 1.731998e-01 4.616890e-02 2.251475e-02 9.834709e-02 3.001380e-01 9.914936e-02 2.088107e-01 -1.101901e-01 -1.565824e-01 1.156471e-03 -5.684773e-02 -4.482927e-02 3.251045e-02 -1.340604e-01 -2.939239e-02 -6.640375e-02 -2.874875e-02 -1.864462e-02 3.955258e-03 -1.002124e-01 9.551159e-02 -2.717586e-02 -1.016811e-03
<VARIANCE> 39
 1.777287e+00 2.622426e+00 3.874898e+00 6.050987e+00 9.861986e+00 7.334661e+00 2.079977e+01 4.625874e+01 4.682748e+00 7.199349e+00 2.215908e+01 2.808061e+01 8.178985e-04 1.317329e-01 1.314413e-01 2.967755e-01 2.577349e-01 2.614818e-01 2.742329e-01 2.354544e-01 4.575379e-01 1.921299e-01 2.606218e-01 3.149878e-01 6.180109e-01 3.754082e-05 7.481431e-03 2.221302e-02 4.348827e-02 2.674806e-02 6.906842e-02 5.184631e-02 8.511217e-02 4.608062e-02 5.569608e-02 6.486564e-02 1.483375e-01 1.133457e-01 3.730628e-06
<GCONST> 1.521314e+01
<MIXTURE> 20 2.584815e-02
<MEAN> 39
 -2.365111e+00 1.141542e+01 -8.066720e+00 -6.387841e+00 -1.071070e+01 -1.057078e+01 -6.586675e+00 -9.783694e-01 -1.262462e+01 -3.718536e+00 -6.293214e+00 2.467630e+00 7.993573e-01 1.266368e-02 -8.898320e-02 -2.036200e-01 -4.885689e-02 -6.374325e-02 -2.582543e-01 9.850684e-02 5.632864e-02 1.484427e-01 -1.853185e-01 6.253658e-02 -1.563163e-01 1.427309e-03 1.906598e-02 1.498020e-02 4.209781e-02 1.444839e-02 9.658306e-02 7.294998e-02 7.455240e-02 1.409317e-02 1.014639e-01 5.992992e-02 1.269181e-02 -6.819668e-02 -5.651983e-04
<VARIANCE> 39
 2.206943e+00 1.963844e+00 2.460881e+00 5.918024e+00 7.543372e+00 1.125706e+01 2.562499e+01 1.865147e+01 5.728073e+00 5.535993e+00 5.448316e+00 5.018484e+00 3.629106e-03 1.045609e-01 1.770072e-01 1.763880e-01 4.530814e-01 5.282288e-01 2.105662e-01 3.500476e-01 3.995616e-01 4.549043e-01 1.423548e-01 2.327545e-01 4.428786e-01 3.754082e-05 1.395891e-02 1.474713e-02 2.323300e-02 3.922783e-02 8.349846e-02 2.786652e-02 5.103230e-02 2.623644e-02 5.274860e-02 2.696494e-02 5.241152e-02 7.972629e-02 3.730628e-06
<GCONST> 9.000532e+00
<STATE> 5
<NUMMIXES> 20
<MIXTURE> 1 2.645906e-02
<MEAN> 39
 -4.719299e+00 1.259278e+01 -8.940160e+00 -3.955601e+00 -6.391361e+00 -6.292719e+00 -2.854317e-01 -7.703134e-01 8.449606e+00 9.651011e+00 1.293281e+01 1.808334e+01 9.024448e-01 2.676970e-01 2.852673e-01 2.968906e-01 3.824560e-01 2.102118e-01 3.385784e-01 1.800531e-01 2.093931e-01 7.017440e-02 -1.423513e-01 6.051607e-03 -2.729735e-01 2.224715e-03 8.696927e-02 1.849549e-02 1.086297e-01 -6.092436e-04 4.024761e-02 5.266701e-02 6.438974e-02 9.360747e-04 -8.153683e-02 -1.080210e-03 -1.344238e-01 -1.321919e-01 -1.807872e-03
<VARIANCE> 39
 2.354268e+01 5.046669e+01 3.181147e+01 1.173059e+01 1.077355e+01 1.359346e+01 1.806393e+01 1.571440e+01 2.675715e+01 6.393354e+01 2.891714e+01 4.606244e+01 6.063443e-03 2.894317e-01 5.640033e-01 6.245948e-01 8.331028e-01 5.575131e-01 8.217170e-01 4.020337e-01 5.367551e-01 4.138504e-01 8.036973e-01 2.079900e-01 1.014528e+00 3.754082e-05 3.529204e-02 4.237708e-02 8.527409e-02 1.048761e-01 1.114958e-01 1.013604e-01 7.208814e-02 3.616662e-02 7.947446e-02 1.195195e-01 6.274812e-02 6.714777e-02 3.730628e-06
<GCONST> 4.294215e+01
<MIXTURE> 2 2.211144e-02
<MEAN> 39
